{"learner":{"attributes":{"best_iteration":"299","best_ntree_limit":"300","scikit_learn":"{\"use_label_encoder\": null, \"n_estimators\": 300, \"objective\": \"multi:softprob\", \"max_depth\": 7, \"max_leaves\": null, \"max_bin\": null, \"grow_policy\": null, \"learning_rate\": 0.01, \"verbosity\": null, \"booster\": null, \"tree_method\": null, \"gamma\": null, \"min_child_weight\": null, \"max_delta_step\": null, \"subsample\": 0.5, \"sampling_method\": null, \"colsample_bytree\": 1.0, \"colsample_bylevel\": null, \"colsample_bynode\": null, \"reg_alpha\": null, \"reg_lambda\": null, \"scale_pos_weight\": null, \"base_score\": null, \"missing\": NaN, \"num_parallel_tree\": null, \"random_state\": null, \"n_jobs\": null, \"monotone_constraints\": null, \"interaction_constraints\": null, \"importance_type\": null, \"gpu_id\": null, \"validate_parameters\": null, \"predictor\": null, \"enable_categorical\": false, \"feature_types\": null, \"max_cat_to_onehot\": null, \"max_cat_threshold\": null, \"eval_metric\": null, \"early_stopping_rounds\": null, \"callbacks\": null, \"classes_\": [0, 1, 2, 3, 4], \"n_classes_\": 5, \"_estimator_type\": \"classifier\"}"},"feature_names":[],"feature_types":[],"gradient_booster":{"model":{"gbtree_model_param":{"num_parallel_tree":"1","num_trees":"1500","size_leaf_vector":"0"},"tree_info":[0,1,2,3,4,0,1,2,3,4,0,1,2,3,4,0,1,2,3,4,0,1,2,3,4,0,1,2,3,4,0,1,2,3,4,0,1,2,3,4,0,1,2,3,4,0,1,2,3,4,0,1,2,3,4,0,1,2,3,4,0,1,2,3,4,0,1,2,3,4,0,1,2,3,4,0,1,2,3,4,0,1,2,3,4,0,1,2,3,4,0,1,2,3,4,0,1,2,3,4,0,1,2,3,4,0,1,2,3,4,0,1,2,3,4,0,1,2,3,4,0,1,2,3,4,0,1,2,3,4,0,1,2,3,4,0,1,2,3,4,0,1,2,3,4,0,1,2,3,4,0,1,2,3,4,0,1,2,3,4,0,1,2,3,4,0,1,2,3,4,0,1,2,3,4,0,1,2,3,4,0,1,2,3,4,0,1,2,3,4,0,1,2,3,4,0,1,2,3,4,0,1,2,3,4,0,1,2,3,4,0,1,2,3,4,0,1,2,3,4,0,1,2,3,4,0,1,2,3,4,0,1,2,3,4,0,1,2,3,4,0,1,2,3,4,0,1,2,3,4,0,1,2,3,4,0,1,2,3,4,0,1,2,3,4,0,1,2,3,4,0,1,2,3,4,0,1,2,3,4,0,1,2,3,4,0,1,2,3,4,0,1,2,3,4,0,1,2,3,4,0,1,2,3,4,0,1,2,3,4,0,1,2,3,4,0,1,2,3,4,0,1,2,3,4,0,1,2,3,4,0,1,2,3,4,0,1,2,3,4,0,1,2,3,4,0,1,2,3,4,0,1,2,3,4,0,1,2,3,4,0,1,2,3,4,0,1,2,3,4,0,1,2,3,4,0,1,2,3,4,0,1,2,3,4,0,1,2,3,4,0,1,2,3,4,0,1,2,3,4,0,1,2,3,4,0,1,2,3,4,0,1,2,3,4,0,1,2,3,4,0,1,2,3,4,0,1,2,3,4,0,1,2,3,4,0,1,2,3,4,0,1,2,3,4,0,1,2,3,4,0,1,2,3,4,0,1,2,3,4,0,1,2,3,4,0,1,2,3,4,0,1,2,3,4,0,1,2,3,4,0,1,2,3,4,0,1,2,3,4,0,1,2,3,4,0,1,2,3,4,0,1,2,3,4,0,1,2,3,4,0,1,2,3,4,0,1,2,3,4,0,1,2,3,4,0,1,2,3,4,0,1,2,3,4,0,1,2,3,4,0,1,2,3,4,0,1,2,3,4,0,1,2,3,4,0,1,2,3,4,0,1,2,3,4,0,1,2,3,4,0,1,2,3,4,0,1,2,3,4,0,1,2,3,4,0,1,2,3,4,0,1,2,3,4,0,1,2,3,4,0,1,2,3,4,0,1,2,3,4,0,1,2,3,4,0,1,2,3,4,0,1,2,3,4,0,1,2,3,4,0,1,2,3,4,0,1,2,3,4,0,1,2,3,4,0,1,2,3,4,0,1,2,3,4,0,1,2,3,4,0,1,2,3,4,0,1,2,3,4,0,1,2,3,4,0,1,2,3,4,0,1,2,3,4,0,1,2,3,4,0,1,2,3,4,0,1,2,3,4,0,1,2,3,4,0,1,2,3,4,0,1,2,3,4,0,1,2,3,4,0,1,2,3,4,0,1,2,3,4,0,1,2,3,4,0,1,2,3,4,0,1,2,3,4,0,1,2,3,4,0,1,2,3,4,0,1,2,3,4,0,1,2,3,4,0,1,2,3,4,0,1,2,3,4,0,1,2,3,4,0,1,2,3,4,0,1,2,3,4,0,1,2,3,4,0,1,2,3,4,0,1,2,3,4,0,1,2,3,4,0,1,2,3,4,0,1,2,3,4,0,1,2,3,4,0,1,2,3,4,0,1,2,3,4,0,1,2,3,4,0,1,2,3,4,0,1,2,3,4,0,1,2,3,4,0,1,2,3,4,0,1,2,3,4,0,1,2,3,4,0,1,2,3,4,0,1,2,3,4,0,1,2,3,4,0,1,2,3,4,0,1,2,3,4,0,1,2,3,4,0,1,2,3,4,0,1,2,3,4,0,1,2,3,4,0,1,2,3,4,0,1,2,3,4,0,1,2,3,4,0,1,2,3,4,0,1,2,3,4,0,1,2,3,4,0,1,2,3,4,0,1,2,3,4,0,1,2,3,4,0,1,2,3,4,0,1,2,3,4,0,1,2,3,4,0,1,2,3,4,0,1,2,3,4,0,1,2,3,4,0,1,2,3,4,0,1,2,3,4,0,1,2,3,4,0,1,2,3,4,0,1,2,3,4,0,1,2,3,4,0,1,2,3,4,0,1,2,3,4,0,1,2,3,4,0,1,2,3,4,0,1,2,3,4,0,1,2,3,4,0,1,2,3,4,0,1,2,3,4,0,1,2,3,4,0,1,2,3,4,0,1,2,3,4,0,1,2,3,4,0,1,2,3,4,0,1,2,3,4,0,1,2,3,4,0,1,2,3,4,0,1,2,3,4,0,1,2,3,4,0,1,2,3,4,0,1,2,3,4,0,1,2,3,4,0,1,2,3,4,0,1,2,3,4,0,1,2,3,4,0,1,2,3,4,0,1,2,3,4,0,1,2,3,4,0,1,2,3,4,0,1,2,3,4,0,1,2,3,4,0,1,2,3,4,0,1,2,3,4,0,1,2,3,4,0,1,2,3,4,0,1,2,3,4,0,1,2,3,4,0,1,2,3,4,0,1,2,3,4,0,1,2,3,4,0,1,2,3,4,0,1,2,3,4,0,1,2,3,4,0,1,2,3,4,0,1,2,3,4,0,1,2,3,4,0,1,2,3,4,0,1,2,3,4,0,1,2,3,4,0,1,2,3,4,0,1,2,3,4,0,1,2,3,4,0,1,2,3,4,0,1,2,3,4,0,1,2,3,4,0,1,2,3,4,0,1,2,3,4,0,1,2,3,4,0,1,2,3,4,0,1,2,3,4,0,1,2,3,4,0,1,2,3,4,0,1,2,3,4,0,1,2,3,4,0,1,2,3,4,0,1,2,3,4,0,1,2,3,4,0,1,2,3,4,0,1,2,3,4,0,1,2,3,4,0,1,2,3,4,0,1,2,3,4,0,1,2,3,4,0,1,2,3,4,0,1,2,3,4,0,1,2,3,4,0,1,2,3,4,0,1,2,3,4,0,1,2,3,4,0,1,2,3,4,0,1,2,3,4,0,1,2,3,4,0,1,2,3,4,0,1,2,3,4,0,1,2,3,4,0,1,2,3,4,0,1,2,3,4,0,1,2,3,4,0,1,2,3,4,0,1,2,3,4,0,1,2,3,4,0,1,2,3,4,0,1,2,3,4,0,1,2,3,4,0,1,2,3,4,0,1,2,3,4,0,1,2,3,4],"trees":[{"base_weights":[6.69456E-1,3.0762166E-1,1.2889982E0,-2.5740024E-2,1.0534124E0,1.5456238E0,-4.639175E-1,6.2231755E-1,-2.899824E-1,1.6915423E0,9.31677E-2,1.8161925E0,-0E0,1.3138685E0,-2.892562E-1,-4.5105565E-1,9.589041E-1,2.0915031E0,2.739726E-1,-5.03876E-1,1.4035088E0,2.0779219E0,3.0927834E-1,-4.109589E-1,5.2631575E-1,-3.508772E-1,1.9047618E0,8.77193E-2,-4.4943818E-1,5.2631575E-1,-5.419223E-1,3.8461536E-1,2.2463768E0,-3.8461536E-1,9.6491224E-1,8.77193E-2,-5.908096E-1],"categories":[],"categories_nodes":[],"categories_segments":[],"categories_sizes":[],"default_left":[1,1,1,1,1,1,0,1,1,1,1,1,1,1,1,1,0,0,0,0,0,1,1,0,0,0,0,0,0,0,1,0,0,0,0,0,0],"id":0,"left_children":[1,3,5,7,9,11,-1,13,15,17,19,21,23,25,27,29,-1,-1,-1,-1,-1,31,33,-1,-1,-1,-1,-1,-1,-1,35,-1,-1,-1,-1,-1,-1],"loss_changes":[1.4605045E1,1.0856917E1,1.1675217E1,5.5027337E0,8.102417E0,8.98288E0,0E0,6.25537E0,5.01097E0,3.985447E0,5.745405E0,6.567051E0,1.1247296E0,6.058943E0,3.3168632E-1,2.1360316E0,0E0,0E0,0E0,0E0,0E0,3.528778E0,2.1362882E0,0E0,0E0,0E0,0E0,0E0,0E0,0E0,6.5391207E-1,0E0,0E0,0E0,0E0,0E0,0E0],"parents":[2147483647,0,0,1,1,2,2,3,3,4,4,5,5,7,7,8,8,9,9,10,10,11,11,12,12,13,13,14,14,15,15,21,21,22,22,30,30],"right_children":[2,4,6,8,10,12,-1,14,16,18,20,22,24,26,28,30,-1,-1,-1,-1,-1,32,34,-1,-1,-1,-1,-1,-1,-1,36,-1,-1,-1,-1,-1,-1],"split_conditions":[7.4686396E-1,1.1159831E0,1.7054393E0,3.4684938E-1,8.6460924E-1,5.732908E-1,-4.639175E-3,1.3510916E-1,5.0469475E0,8.9072305E-1,5.7578766E-1,2.069484E0,3.288891E-1,7.9910356E-1,5.880897E-1,1.709258E-1,9.589041E-3,2.0915031E-2,2.7397259E-3,-5.0387597E-3,1.4035087E-2,1.6963707E-2,9.992997E-1,-4.109589E-3,5.263157E-3,-3.5087718E-3,1.9047618E-2,8.7719294E-4,-4.4943816E-3,5.263157E-3,4.1025262E-2,3.8461536E-3,2.2463767E-2,-3.8461536E-3,9.649122E-3,8.7719294E-4,-5.9080957E-3],"split_indices":[205,88,268,308,497,448,0,16,137,78,155,169,1,428,0,107,0,0,0,0,0,453,2,0,0,0,0,0,0,0,1,0,0,0,0,0,0],"split_type":[0,0,0,0,0,0,0,0,0,0,0,0,0,0,0,0,0,0,0,0,0,0,0,0,0,0,0,0,0,0,0,0,0,0,0,0,0],"sum_hessian":[6.5920006E1,4.256E1,2.3360003E1,3.0080002E1,1.24800005E1,2.0480001E1,2.88E0,8.320001E0,2.1760002E1,7.0400004E0,5.4400005E0,1.728E1,3.2000003E0,4.4800005E0,3.8400002E0,1.9840002E1,1.9200001E0,5.1200004E0,1.9200001E0,4.1600003E0,1.2800001E0,1.4400001E1,2.88E0,1.9200001E0,1.2800001E0,1.2800001E0,3.2000003E0,1.2800001E0,2.5600002E0,1.2800001E0,1.8560001E1,1.6000001E0,1.2800001E1,1.6000001E0,1.2800001E0,1.2800001E0,1.728E1],"tree_param":{"num_deleted":"0","num_feature":"512","num_nodes":"37","size_leaf_vector":"0"}},{"base_weights":[-4.0110224E-1,-4.7005793E-1,7.142857E-1,7.692307E-1,-5.15532E-1,-3.8461536E-1,1.5384614E0,-5.4692775E-1,5.2631575E-1,-5.7920444E-1,2.739726E-1,1.8518518E-1,-6.136528E-1],"categories":[],"categories_nodes":[],"categories_segments":[],"categories_sizes":[],"default_left":[1,1,1,0,1,0,0,1,0,1,0,0,0],"id":1,"left_children":[1,3,5,-1,7,-1,-1,9,-1,11,-1,-1,-1],"loss_changes":[5.3596716E0,3.8973684E0,4.395604E0,0E0,2.267437E0,0E0,0E0,1.7283077E0,0E0,1.6229897E0,0E0,0E0,0E0],"parents":[2147483647,0,0,1,1,2,2,4,4,7,7,9,9],"right_children":[2,4,6,-1,8,-1,-1,10,-1,12,-1,-1,-1],"split_conditions":[1.4936917E0,4.580641E-3,1.018561E0,7.6923072E-3,5.5664986E-1,-3.8461536E-3,1.53846145E-2,1.188643E0,5.263157E-3,6.4731956E-2,2.7397259E-3,1.8518517E-3,-6.136528E-3],"split_indices":[287,259,103,0,160,0,0,291,0,332,0,0,0],"split_type":[0,0,0,0,0,0,0,0,0,0,0,0,0],"sum_hessian":[6.432001E1,6.1120003E1,3.2000003E0,1.6000001E0,5.9520004E1,1.6000001E0,1.6000001E0,5.8240005E1,1.2800001E0,5.6320004E1,1.9200001E0,2.2400002E0,5.4080006E1],"tree_param":{"num_deleted":"0","num_feature":"512","num_nodes":"13","size_leaf_vector":"0"}},{"base_weights":[1.5764426E-1,8.350951E-1,-1.05433896E-1,-3.2846713E-1,1.2188365E0,-2.183406E-1,1.0619469E0,-4.7619045E-1,8.77193E-2,1.7469878E0,3.649635E-2,5.0583655E-1,-4.1621026E-1,1.728395E0,-3.508772E-1,2.0813396E0,-0E0,9.6491224E-1,-4.7619045E-1,1.6438355E0,4.7846887E-2,-4.925544E-1,7.692307E-1,-3.8461536E-1,1.1538461E0,-5.747836E-1,3.9325842E-1,-5.109489E-1,8.77193E-2,-6.048906E-1,8.77193E-2,-3.508772E-1,9.6491224E-1],"categories":[],"categories_nodes":[],"categories_segments":[],"categories_sizes":[],"default_left":[1,1,1,1,1,1,1,0,0,1,1,1,1,0,0,0,0,0,0,0,1,1,0,1,0,1,1,0,0,0,0,0,0],"id":2,"left_children":[1,3,5,7,9,11,13,-1,-1,15,17,19,21,-1,-1,-1,-1,-1,-1,-1,23,25,-1,27,-1,29,31,-1,-1,-1,-1,-1,-1],"loss_changes":[1.207173E1,8.84826E0,6.7324944E0,3.7868392E-1,8.953365E0,6.77334E0,4.862368E0,0E0,0E0,5.8177204E0,3.0678885E0,5.2791996E0,3.684001E0,0E0,0E0,0E0,0E0,0E0,0E0,0E0,4.4423995E0,2.7696037E0,0E0,4.482007E-1,0E0,6.985092E-1,1.8529469E0,0E0,0E0,0E0,0E0,0E0,0E0],"parents":[2147483647,0,0,1,1,2,2,3,3,4,4,5,5,6,6,9,9,10,10,11,11,12,12,20,20,21,21,23,23,25,25,26,26],"right_children":[2,4,6,8,10,12,14,-1,-1,16,18,20,22,-1,-1,-1,-1,-1,-1,-1,24,26,-1,28,-1,30,32,-1,-1,-1,-1,-1,-1],"split_conditions":[3.6728907E-1,2.7063864E-1,3.25459E-1,8.824831E-1,3.0353498E-1,7.844084E-2,1.3778996E0,-4.7619045E-3,8.7719294E-4,6.1447024E-1,3.1406763E-1,1.2387187E0,5.9487057E-1,1.728395E-2,-3.5087718E-3,2.0813396E-2,-0E0,9.649122E-3,-4.7619045E-3,1.6438356E-2,2.3737168E0,9.7727025E-1,7.6923072E-3,6.98439E-1,1.1538461E-2,1.1046249E0,2.0926605E-1,-5.109489E-3,8.7719294E-4,-6.0489057E-3,8.7719294E-4,-3.5087718E-3,9.649122E-3],"split_indices":[31,89,326,0,318,377,45,0,0,177,38,86,249,0,0,0,0,0,0,0,219,66,0,1,0,29,6,0,0,0,0,0,0],"split_type":[0,0,0,0,0,0,0,0,0,0,0,0,0,0,0,0,0,0,0,0,0,0,0,0,0,0,0,0,0,0,0,0,0],"sum_hessian":[6.6240005E1,1.7920002E1,4.8320004E1,4.4800005E0,1.3440001E1,4.4800003E1,3.5200002E0,3.2000003E0,1.2800001E0,8.960001E0,4.4800005E0,9.280001E0,3.5520004E1,2.2400002E0,1.2800001E0,7.3600006E0,1.6000001E0,1.2800001E0,3.2000003E0,1.9200001E0,7.3600006E0,3.3920002E1,1.6000001E0,5.76E0,1.6000001E0,3.1360003E1,2.5600002E0,4.4800005E0,1.2800001E0,3.0080002E1,1.2800001E0,1.2800001E0,1.2800001E0],"tree_param":{"num_deleted":"0","num_feature":"512","num_nodes":"33","size_leaf_vector":"0"}},{"base_weights":[-4.781829E-2,-3.372835E-1,4.825291E-1,1.2987012E-1,-5.6987786E-1,1.0389609E0,-4.564315E-1,6.965174E-1,-4.3062198E-1,8.77193E-2,-6.0283685E-1,1.6952789E0,2.8248586E-2,-5.502392E-1,8.77193E-2,1.5979381E0,-1.16279066E-1,-5.3672314E-1,8.77193E-2,2.046632E0,-0E0,-5.109489E-1,1.1538461E0,-4.639175E-1,5.2631575E-1],"categories":[],"categories_nodes":[],"categories_segments":[],"categories_sizes":[],"default_left":[1,1,1,1,1,1,1,1,1,0,0,1,1,0,0,0,1,0,0,0,0,0,0,0,0],"id":3,"left_children":[1,3,5,7,9,11,13,15,17,-1,-1,19,21,-1,-1,-1,23,-1,-1,-1,-1,-1,-1,-1,-1],"loss_changes":[1.0436113E1,4.841893E0,1.3034338E1,5.1909957E0,6.918211E-1,1.0167681E1,5.4034543E-1,6.0764866E0,5.068526E-1,0E0,0E0,5.55138E0,4.8865457E0,0E0,0E0,0E0,1.396863E0,0E0,0E0,0E0,0E0,0E0,0E0,0E0,0E0],"parents":[2147483647,0,0,1,1,2,2,3,3,4,4,5,5,6,6,7,7,8,8,11,11,12,12,16,16],"right_children":[2,4,6,8,10,12,14,16,18,-1,-1,20,22,-1,-1,-1,24,-1,-1,-1,-1,-1,-1,-1,-1],"split_conditions":[3.969658E-1,3.5388225E-1,3.2920432E-1,9.613629E-2,1.7401022E-1,1.444978E0,6.2192875E-1,3.1785446E-1,3.9184886E-1,8.7719294E-4,-6.028368E-3,1.3988051E-1,6.1768717E-1,-5.502392E-3,8.7719294E-4,1.597938E-2,1.1958536E0,-5.367231E-3,8.7719294E-4,2.046632E-2,-0E0,-5.109489E-3,1.1538461E-2,-4.639175E-3,5.263157E-3],"split_indices":[61,354,386,379,0,342,1,452,6,0,0,416,238,0,0,0,4,0,0,0,0,0,0,0,0],"split_type":[0,0,0,0,0,0,0,0,0,0,0,0,0,0,0,0,0,0,0,0,0,0,0,0,0],"sum_hessian":[6.5920006E1,4.2880005E1,2.304E1,1.4400001E1,2.8480001E1,1.4400001E1,8.64E0,7.0400004E0,7.3600006E0,1.2800001E0,2.7200003E1,8.320001E0,6.0800004E0,7.3600006E0,1.2800001E0,2.88E0,4.1600003E0,6.0800004E0,1.2800001E0,6.7200003E0,1.6000001E0,4.4800005E0,1.6000001E0,2.88E0,1.2800001E0],"tree_param":{"num_deleted":"0","num_feature":"512","num_nodes":"25","size_leaf_vector":"0"}},{"base_weights":[-3.6412075E-1,-4.5908806E-1,1.0619469E0,3.305785E-1,-5.1495016E-1,-3.508772E-1,1.728395E0,-4.4943818E-1,1.4035088E0,5.2631575E-1,-5.465037E-1,-5.95325E-1,7.751938E-2,8.77193E-2,-6.133134E-1,9.6491224E-1,-4.639175E-1],"categories":[],"categories_nodes":[],"categories_segments":[],"categories_sizes":[],"default_left":[1,1,1,1,1,0,0,0,0,0,1,1,1,0,0,0,0],"id":4,"left_children":[1,3,5,7,9,-1,-1,-1,-1,-1,11,13,15,-1,-1,-1,-1],"loss_changes":[9.637163E0,2.9951906E0,4.862368E0,4.681403E0,2.265544E0,0E0,0E0,0E0,0E0,0E0,1.8411846E0,7.2662735E-1,2.9268506E0,0E0,0E0,0E0,0E0],"parents":[2147483647,0,0,1,1,2,2,3,3,4,4,10,10,11,11,12,12],"right_children":[2,4,6,8,10,-1,-1,-1,-1,-1,12,14,16,-1,-1,-1,-1],"split_conditions":[1.3839066E0,2.6720387E-1,1.873478E-1,6.8750453E-1,1.6524602E-2,-3.5087718E-3,1.728395E-2,-4.4943816E-3,1.4035087E-2,5.263157E-3,1.1848614E0,3.7752938E-2,2.8962153E-1,8.7719294E-4,-6.1331335E-3,9.649122E-3,-4.639175E-3],"split_indices":[7,0,1,26,143,0,0,0,0,0,276,20,55,0,0,0,0],"split_type":[0,0,0,0,0,0,0,0,0,0,0,0,0,0,0,0,0],"sum_hessian":[6.6560005E1,6.3040005E1,3.5200002E0,3.8400002E0,5.9200005E1,1.2800001E0,2.2400002E0,2.5600002E0,1.2800001E0,1.2800001E0,5.7920006E1,5.3760002E1,4.1600003E0,1.2800001E0,5.2480003E1,1.2800001E0,2.88E0],"tree_param":{"num_deleted":"0","num_feature":"512","num_nodes":"17","size_leaf_vector":"0"}},{"base_weights":[6.6976136E-1,1.5679087E-1,1.1140996E0,-2.4794078E-1,8.1114566E-1,-5.2428868E-2,1.4129264E0,-4.6780044E-1,6.17365E-1,1.5247847E0,-6.498619E-2,-5.2876836E-1,1.1458465E0,5.820674E-1,1.8681829E0,5.221139E-1,-5.84432E-1,1.5264246E0,-4.099866E-1,1.966851E0,2.7000403E-1,9.5783985E-1,-5.0484264E-1,1.3269471E0,-3.461345E-1,8.4919006E-2,2.0046282E0,1.8085417E0,-3.507705E-1,8.6774364E-2,-4.8773792E-1,2.1569712E0,3.820626E-1,7.6267755E-1,2.2712193E0],"categories":[],"categories_nodes":[],"categories_segments":[],"categories_sizes":[],"default_left":[1,1,1,1,1,1,1,1,1,1,1,0,0,1,1,0,0,0,0,0,0,0,0,1,1,0,1,0,0,0,0,1,0,0,0],"id":5,"left_children":[1,3,5,7,9,11,13,15,17,19,21,-1,-1,23,25,-1,-1,-1,-1,-1,-1,-1,-1,27,29,-1,31,-1,-1,-1,-1,33,-1,-1,-1],"loss_changes":[1.4711206E1,8.537393E0,1.2215973E1,4.1344004E0,7.7664633E0,5.2106028E0,9.414478E0,2.231779E0,4.8532243E0,3.240387E0,3.3916612E0,0E0,0E0,8.258602E0,4.08387E0,0E0,0E0,0E0,0E0,0E0,0E0,0E0,0E0,5.858076E0,3.9881152E-1,0E0,3.1795197E0,0E0,0E0,0E0,0E0,5.921173E-1,0E0,0E0,0E0],"parents":[2147483647,0,0,1,1,2,2,3,3,4,4,5,5,6,6,7,7,8,8,9,9,10,10,13,13,14,14,23,23,24,24,26,26,31,31],"right_children":[2,4,6,8,10,12,14,16,18,20,22,-1,-1,24,26,-1,-1,-1,-1,-1,-1,-1,-1,28,30,-1,32,-1,-1,-1,-1,34,-1,-1,-1],"split_conditions":[4.150621E-1,2.2375462E0,1.0009877E-1,2.2555012E-1,1.9338486E0,2.3578477E0,5.123446E-1,8.111995E-1,4.143066E-1,2.6302806E-1,5.9679574E-1,-5.2876836E-3,1.1458465E-2,1.9275239E-1,3.4507746E-1,5.221139E-3,-5.8443197E-3,1.5264246E-2,-4.099866E-3,1.966851E-2,2.7000403E-3,9.578398E-3,-5.0484263E-3,1.5110737E0,7.486558E-1,8.4919005E-4,1.1233983E0,1.8085416E-2,-3.507705E-3,8.677436E-4,-4.877379E-3,1.6141945E-1,3.820626E-3,7.626775E-3,2.2712192E-2],"split_indices":[281,260,202,222,37,454,168,40,164,507,429,0,0,502,294,0,0,0,0,0,0,0,0,363,40,0,245,0,0,0,0,73,0,0,0],"split_type":[0,0,0,0,0,0,0,0,0,0,0,0,0,0,0,0,0,0,0,0,0,0,0,0,0,0,0,0,0,0,0,0,0,0,0],"sum_hessian":[6.4308334E1,3.047688E1,3.3831455E1,1.9213829E1,1.126305E1,7.0673246E0,2.676413E1,1.56873255E1,3.526504E0,5.799115E0,5.4639354E0,5.4568415E0,1.6104833E0,1.0280467E1,1.6483664E1,1.2870271E0,1.4400298E1,1.6132351E0,1.913269E0,3.8686736E0,1.9304414E0,1.2889769E0,4.1749587E0,5.465127E0,4.8153396E0,1.2869048E0,1.5196758E1,4.1856456E0,1.2794815E0,1.2823008E0,3.5330389E0,1.3591309E1,1.6054497E0,1.6106305E0,1.1980679E1],"tree_param":{"num_deleted":"0","num_feature":"512","num_nodes":"35","size_leaf_vector":"0"}},{"base_weights":[-3.396719E-1,5.049548E-1,-4.295111E-1,1.6412507E0,-2.8777856E-1,-4.7580528E-1,7.7179396E-1,9.0684645E-2,-4.488117E-1,2.947591E-1,-5.558061E-1,1.2976E0,-4.754565E-1,-5.9281236E-1,5.295262E-1,9.0413556E-2,-6.118607E-1],"categories":[],"categories_nodes":[],"categories_segments":[],"categories_sizes":[],"default_left":[1,1,1,0,1,1,0,0,0,1,1,0,0,1,0,0,0],"id":6,"left_children":[1,3,5,-1,7,9,-1,-1,-1,11,13,-1,-1,15,-1,-1,-1],"loss_changes":[5.1816306E0,6.552486E0,3.6861515E0,0E0,3.3487308E-1,3.74438E0,0E0,0E0,0E0,5.3413467E0,2.4412518E0,0E0,0E0,7.2805023E-1,0E0,0E0,0E0],"parents":[2147483647,0,0,1,1,2,2,4,4,5,5,9,9,10,10,13,13],"right_children":[2,4,6,-1,8,10,-1,-1,-1,12,14,-1,-1,16,-1,-1,-1],"split_conditions":[8.812138E-2,2.5265353E0,2.8533602E0,1.6412508E-2,3.3118838E-1,1.1504154E0,7.7179396E-3,9.068464E-4,-4.488117E-3,1.5678301E0,1.3225017E0,1.2976E-2,-4.7545647E-3,7.877892E-1,5.2952617E-3,9.041355E-4,-6.118607E-3],"split_indices":[177,270,118,0,226,270,0,0,0,230,111,0,0,325,0,0,0],"split_type":[0,0,0,0,0,0,0,0,0,0,0,0,0,0,0,0,0],"sum_hessian":[6.442842E1,5.7498956E0,5.8678524E1,1.9230484E0,3.8268473E0,5.708268E1,1.5958449E0,1.2726643E0,2.554183E0,5.1164823E0,5.1966198E1,1.9251559E0,3.1913266E0,5.0691574E1,1.2746212E0,1.273327E0,4.9418247E1],"tree_param":{"num_deleted":"0","num_feature":"512","num_nodes":"17","size_leaf_vector":"0"}},{"base_weights":[-7.8670785E-2,-1.7151801E-1,1.275939E0,1.0264267E0,-2.8402504E-1,8.625586E-2,1.7190102E0,-3.8562778E-1,1.6552385E0,-4.519254E-1,4.6291393E-1,-5.2430356E-1,3.2942393E-1,-3.4580475E-1,1.087265E0,3.926973E-1,-5.873377E-1,1.3940904E0,-4.4892028E-1,-4.876988E-1,8.814619E-2,1.7097151E0,-1.2295824E-1,9.606083E-1,-3.5006246E-1,-6.09892E-1,8.839538E-2],"categories":[],"categories_nodes":[],"categories_segments":[],"categories_sizes":[],"default_left":[1,1,1,1,1,0,0,0,0,1,1,1,1,1,1,1,1,0,0,0,0,0,0,0,0,0,0],"id":7,"left_children":[1,3,5,7,9,-1,-1,-1,-1,11,13,15,17,19,21,23,25,-1,-1,-1,-1,-1,-1,-1,-1,-1,-1],"loss_changes":[8.87942E0,9.095712E0,2.2424474E0,5.8104525E0,7.7964506E0,0E0,0E0,0E0,0E0,2.9947844E0,6.2317677E0,2.8928375E0,4.6405597E0,4.008236E-1,5.322136E0,1.8386304E0,7.168102E-1,0E0,0E0,0E0,0E0,0E0,0E0,0E0,0E0,0E0,0E0],"parents":[2147483647,0,0,1,1,2,2,3,3,4,4,9,9,10,10,11,11,12,12,13,13,14,14,15,15,16,16],"right_children":[2,4,6,8,10,-1,-1,-1,-1,12,14,16,18,20,22,24,26,-1,-1,-1,-1,-1,-1,-1,-1,-1,-1],"split_conditions":[2.922411E-1,5.9736305E-1,4.6858633E-1,9.648558E-1,1.055047E0,8.625586E-4,1.7190102E-2,-3.8562778E-3,1.6552385E-2,8.112259E-1,5.582905E-1,1.6132355E-2,9.742801E-1,9.18702E-1,1.2709126E0,2.1682084E-1,2.8024914E0,1.3940904E-2,-4.4892025E-3,-4.876988E-3,8.8146183E-4,1.709715E-2,-1.2295824E-3,9.606083E-3,-3.5006246E-3,-6.09892E-3,8.8395376E-4],"split_indices":[246,408,108,344,109,0,0,0,0,352,89,259,43,68,28,59,396,0,0,0,0,0,0,0,0,0,0],"split_type":[0,0,0,0,0,0,0,0,0,0,0,0,0,0,0,0,0,0,0,0,0,0,0,0,0,0,0],"sum_hessian":[6.785945E1,6.432396E1,3.53549E0,4.8250375E0,5.949892E1,1.2835985E0,2.2518916E0,1.6058009E0,3.2192369E0,4.890157E1,1.0597353E1,4.5056828E1,3.8447397E0,4.81136E0,5.7859926E0,2.5615964E0,4.249523E1,1.2896206E0,2.555119E0,3.5324545E0,1.2789053E0,3.5482867E0,2.237706E0,1.2854505E0,1.276146E0,4.1216946E1,1.2782873E0],"tree_param":{"num_deleted":"0","num_feature":"512","num_nodes":"27","size_leaf_vector":"0"}},{"base_weights":[-8.337218E-2,6.5344507E-1,-2.36497E-1,1.4279665E0,-1.1216916E-1,7.083798E-1,-3.4773377E-1,1.9318545E0,-7.4505055E-4,-5.1671493E-1,9.6369004E-1,-4.3262762E-1,1.4176174E0,-4.7466767E-1,2.6947665E-1,5.274133E-1,-5.168512E-1,1.1522181E0,-5.167158E-1,3.817788E-1,-5.610834E-1,1.7852072E0,-3.4974593E-1,1.1429166E-1,-6.0857713E-1,-3.502548E-1,5.288978E-1],"categories":[],"categories_nodes":[],"categories_segments":[],"categories_sizes":[],"default_left":[1,1,1,1,1,1,1,0,0,0,0,0,0,1,1,0,1,1,0,0,1,0,0,1,0,0,0],"id":8,"left_children":[1,3,5,7,9,11,13,-1,-1,-1,-1,-1,-1,15,17,-1,19,21,-1,-1,23,-1,-1,25,-1,-1,-1],"loss_changes":[7.992383E0,7.4056716E0,6.3687325E0,4.4266205E0,3.5758643E0,5.844719E0,4.26341E0,0E0,0E0,0E0,0E0,0E0,0E0,2.1386127E0,7.2869005E0,0E0,1.9180508E0,5.236979E0,0E0,0E0,1.3930054E0,0E0,0E0,8.695176E-1,0E0,0E0,0E0],"parents":[2147483647,0,0,1,1,2,2,3,3,4,4,5,5,6,6,13,13,14,14,16,16,17,17,20,20,23,23],"right_children":[2,4,6,8,10,12,14,-1,-1,-1,-1,-1,-1,16,18,-1,20,22,-1,-1,24,-1,-1,26,-1,-1,-1],"split_conditions":[1.50033E-1,3.836771E-2,1.2991646E-2,7.164522E-1,2.1887296E-1,3.6941963E-1,3.4094095E0,1.9318545E-2,-7.4505056E-6,-5.167149E-3,9.6369E-3,-4.326276E-3,1.4176174E-2,7.946895E-2,6.749056E-1,5.274133E-3,8.637335E-3,2.1618595E0,-5.1671583E-3,3.817788E-3,6.9620216E-1,1.7852072E-2,-3.4974592E-3,1.5622169E-1,-6.085771E-3,-3.502548E-3,5.288978E-3],"split_indices":[212,110,291,289,216,159,192,0,0,0,0,0,0,274,262,0,178,54,0,0,58,0,0,23,0,0,0],"split_type":[0,0,0,0,0,0,0,0,0,0,0,0,0,0,0,0,0,0,0,0,0,0,0,0,0,0,0],"sum_hessian":[6.846904E1,1.1218696E1,5.7250347E1,5.1468463E0,6.0718493E0,5.464564E0,5.178578E1,3.54456E0,1.6022861E0,4.7903104E0,1.2815391E0,2.244181E0,3.2203832E0,4.314387E1,8.641911E0,1.278154E0,4.186572E1,3.8516681E0,4.7902427E0,1.6060297E0,4.025969E1,2.5770233E0,1.2746447E0,2.5527258E0,3.7706963E1,1.2770561E0,1.2756697E0],"tree_param":{"num_deleted":"0","num_feature":"512","num_nodes":"27","size_leaf_vector":"0"}},{"base_weights":[-3.1750628E-1,-4.7117743E-1,3.5303038E-1,2.0792642E-1,-5.646387E-1,1.3718618E0,-5.3611755E-1,-4.7550777E-1,9.536975E-1,5.268838E-1,-6.0961086E-1,1.8919168E0,6.271068E-5,1.4020954E0,8.720575E-2],"categories":[],"categories_nodes":[],"categories_segments":[],"categories_sizes":[],"default_left":[1,1,1,1,1,1,0,0,1,0,0,0,0,0,0],"id":9,"left_children":[1,3,5,7,9,11,-1,-1,13,-1,-1,-1,-1,-1,-1],"loss_changes":[6.4187245E0,3.2777615E0,1.1501911E1,3.896205E0,2.4829578E0,4.151598E0,0E0,0E0,1.2619541E0,0E0,0E0,0E0,0E0,0E0,0E0],"parents":[2147483647,0,0,1,1,2,2,3,3,4,4,5,5,8,8],"right_children":[2,4,6,8,10,12,-1,-1,14,-1,-1,-1,-1,-1,-1],"split_conditions":[2.4775949E0,1.24292895E-2,5.5586743E-1,9.8682165E-1,6.689542E-1,1.2322241E0,-5.3611756E-3,-4.7550774E-3,9.670008E-1,5.268838E-3,-6.0961084E-3,1.8919166E-2,6.271068E-7,1.4020954E-2,8.720575E-4],"split_indices":[136,384,235,195,120,129,0,0,26,0,0,0,0,0,0],"split_type":[0,0,0,0,0,0,0,0,0,0,0,0,0,0,0],"sum_hessian":[5.9677933E1,4.8793034E1,1.0884897E1,5.754586E0,4.303845E1,4.819533E0,6.065364E0,3.1918907E0,2.5626953E0,1.2790382E0,4.175941E1,3.2197587E0,1.5997742E0,1.2814388E0,1.2812564E0],"tree_param":{"num_deleted":"0","num_feature":"512","num_nodes":"15","size_leaf_vector":"0"}},{"base_weights":[7.229162E-1,1.3318338E0,3.252431E-1,1.7497109E0,2.8167406E-1,1.4148759E0,9.301078E-3,1.93276E0,-3.5140887E-1,1.4035631E0,-3.6080256E-1,1.750154E0,-3.5226664E-1,-2.3127608E-1,1.0036409E0,2.0842724E0,8.029171E-2,-4.97014E-1,8.744224E-2,2.0680702E0,8.177777E-2,-3.8563287E-1,6.225995E-1,1.8097634E0,-1.6983092E-1,2.1928778E0,5.1464E-1,-5.0695825E-1,9.562359E-1,1.5350673E0,-4.0901443E-1,8.762671E-2,-3.522886E-1,-5.9522843E-1,5.123625E-1],"categories":[],"categories_nodes":[],"categories_segments":[],"categories_sizes":[],"default_left":[1,1,1,1,1,1,1,1,0,0,1,1,0,1,1,1,0,0,0,0,0,1,1,0,1,0,0,1,0,0,0,0,0,0,0],"id":10,"left_children":[1,3,5,7,9,11,13,15,-1,-1,17,19,-1,21,23,25,-1,-1,-1,-1,-1,27,29,-1,31,-1,-1,33,-1,-1,-1,-1,-1,-1,-1],"loss_changes":[1.5286533E1,1.0620129E1,1.396159E1,7.572674E0,6.561211E0,6.018732E0,8.000783E0,4.5032806E0,0E0,0E0,4.1815448E-1,3.9846783E0,0E0,3.793683E0,6.4692845E0,1.4869385E0,0E0,0E0,0E0,0E0,0E0,4.3027315E0,4.8733993E0,0E0,1.9842012E-1,0E0,0E0,2.2988706E0,0E0,0E0,0E0,0E0,0E0,0E0,0E0],"parents":[2147483647,0,0,1,1,2,2,3,3,4,4,5,5,6,6,7,7,10,10,11,11,13,13,14,14,15,15,21,21,22,22,24,24,27,27],"right_children":[2,4,6,8,10,12,14,16,-1,-1,18,20,-1,22,24,26,-1,-1,-1,-1,-1,28,30,-1,32,-1,-1,34,-1,-1,-1,-1,-1,-1,-1],"split_conditions":[5.1116204E-1,4.5984498E-1,5.819778E-2,5.12534E-1,2.4001675E0,5.4564685E-1,4.511565E-1,7.698838E-1,-3.5140887E-3,1.4035631E-2,6.409326E-1,5.4174757E-1,-3.5226664E-3,5.0940573E-1,1.9284499E-1,6.8480396E-1,8.029171E-4,-4.97014E-3,8.744224E-4,2.0680701E-2,8.1777765E-4,4.1939738E-1,1.5619235E0,1.8097633E-2,7.877431E-1,2.1928778E-2,5.1463996E-3,2.8728275E0,9.562358E-3,1.5350672E-2,-4.0901443E-3,8.762671E-4,-3.522886E-3,-5.952284E-3,5.1236246E-3],"split_indices":[208,448,130,6,192,172,207,369,0,0,274,55,0,130,365,55,0,0,0,0,0,391,230,0,29,0,0,381,0,0,0,0,0,0,0],"split_type":[0,0,0,0,0,0,0,0,0,0,0,0,0,0,0,0,0,0,0,0,0,0,0,0,0,0,0,0,0,0,0,0,0,0,0],"sum_hessian":[6.391716E1,2.4323664E1,3.95935E1,1.6923405E1,7.4002585E0,8.1179E0,3.1475597E1,1.56409025E1,1.2825027E0,2.2633665E0,5.136892E0,6.831399E0,1.2865009E0,2.5961666E1,5.5139303E0,1.4342689E1,1.2982137E0,3.8562613E0,1.2806306E0,5.536773E0,1.2946258E0,2.2451447E1,3.5102196E0,2.9471443E0,2.566786E0,1.3043147E1,1.2995411E0,2.1160421E1,1.291025E0,1.6037072E0,1.9065123E0,1.2801573E0,1.2866288E0,1.9856924E1,1.3034976E0],"tree_param":{"num_deleted":"0","num_feature":"512","num_nodes":"35","size_leaf_vector":"0"}},{"base_weights":[-3.3508554E-1,-3.979724E-1,1.1075802E0,-4.7570616E-1,6.5508044E-1,-5.1977044E-1,9.579237E-1,1.4060637E0,-4.1002026E-1,-5.496741E-1,5.27301E-1,2.26135E-3,-5.955488E-1,9.65731E-1,-4.8560783E-1,9.0992585E-2,-6.126632E-1],"categories":[],"categories_nodes":[],"categories_segments":[],"categories_sizes":[],"default_left":[1,1,0,1,1,1,0,0,0,1,0,1,1,0,0,0,0],"id":11,"left_children":[1,3,-1,5,7,9,-1,-1,-1,11,-1,13,15,-1,-1,-1,-1],"loss_changes":[6.916711E0,5.9707813E0,0E0,4.6016045E0,4.7143946E0,2.283493E0,0E0,0E0,0E0,1.5811481E0,0E0,3.1878052E0,7.3264694E-1,0E0,0E0,0E0,0E0],"parents":[2147483647,0,0,1,1,3,3,4,4,5,5,9,9,11,11,12,12],"right_children":[2,4,-1,6,8,10,-1,-1,-1,12,-1,14,16,-1,-1,-1,-1],"split_conditions":[1.2885373E0,1.275303E0,1.1075801E-2,1.1003873E0,7.736747E-2,9.316579E-1,9.579237E-3,1.4060636E-2,-4.1002026E-3,4.7987503E-1,5.27301E-3,1.4336919E0,3.6094952E-1,9.65731E-3,-4.8560784E-3,9.0992585E-4,-6.126632E-3],"split_indices":[111,317,0,439,16,306,0,0,0,149,0,230,95,0,0,0,0],"split_type":[0,0,0,0,0,0,0,0,0,0,0,0,0,0,0,0,0],"sum_hessian":[7.037993E1,6.8134056E1,2.2458727E0,6.396088E1,4.1731725E0,6.2672028E1,1.2888547E0,2.259745E0,1.9134277E0,6.1393703E1,1.2783237E0,4.7841825E0,5.660952E1,1.2789525E0,3.5052302E0,1.2718695E0,5.533765E1],"tree_param":{"num_deleted":"0","num_feature":"512","num_nodes":"17","size_leaf_vector":"0"}},{"base_weights":[2.2775419E-2,7.182959E-1,-1.9815986E-1,1.2050033E0,-5.1061153E-1,-3.4804294E-1,6.424755E-1,1.5446796E0,-4.1266125E-1,-4.076152E-1,9.6347636E-1,-2.6510903E-1,1.3533977E0,-7.0866235E-2,1.9202931E0,-4.7071698E-1,9.6229976E-1,-4.328681E-1,9.1466226E-2,8.7404296E-2,1.7816763E0,5.1289564E-1,2.104111E0,4.902841E-1,-5.355999E-1,-5.832307E-1,5.257841E-1,8.8248305E-2,-6.0795027E-1],"categories":[],"categories_nodes":[],"categories_segments":[],"categories_sizes":[],"default_left":[1,1,1,1,0,1,1,1,0,1,0,1,1,0,1,1,0,0,0,0,0,0,0,0,1,1,0,0,0],"id":12,"left_children":[1,3,5,7,-1,9,11,13,-1,15,-1,17,19,-1,21,23,-1,-1,-1,-1,-1,-1,-1,-1,25,27,-1,-1,-1],"loss_changes":[1.0725952E1,1.067577E1,6.9083014E0,7.421379E0,0E0,3.961317E0,5.765402E0,6.455738E0,0E0,4.2904925E0,0E0,3.0978432E-1,2.4807692E0,0E0,1.1160221E0,2.9506025E0,0E0,0E0,0E0,0E0,0E0,0E0,0E0,0E0,2.3723717E0,7.106333E-1,0E0,0E0,0E0],"parents":[2147483647,0,0,1,1,2,2,3,3,5,5,6,6,7,7,9,9,11,11,12,12,14,14,15,15,24,24,25,25],"right_children":[2,4,6,8,-1,10,12,14,-1,16,-1,18,20,-1,22,24,-1,-1,-1,-1,-1,-1,-1,-1,26,28,-1,-1,-1],"split_conditions":[3.69223E-1,2.7822936E-1,2.0943074E0,2.286262E0,-5.1061152E-3,2.3797643E0,9.99866E-2,1.9431679E0,-4.1266126E-3,8.508872E-1,9.634763E-3,5.0422594E-2,6.943059E-2,-7.086623E-4,2.3103386E-1,7.858474E-2,9.622998E-3,-4.3286807E-3,9.1466226E-4,8.740429E-4,1.7816763E-2,5.1289564E-3,2.1041108E-2,4.9028406E-3,2.0258493E0,3.3088818E-1,5.2578407E-3,8.8248303E-4,-6.0795024E-3],"split_indices":[31,228,429,469,0,338,490,300,0,483,0,376,365,0,347,354,0,0,0,0,0,0,0,0,43,424,0,0,0],"split_type":[0,0,0,0,0,0,0,0,0,0,0,0,0,0,0,0,0,0,0,0,0,0,0,0,0,0,0,0,0],"sum_hessian":[6.787459E1,1.582022E1,5.205437E1,1.1346072E1,4.474148E0,4.4674923E1,7.379446E0,9.414366E0,1.9317058E0,4.3393112E1,1.2818124E0,3.5168378E0,3.862608E0,1.9289819E0,7.485384E0,4.2109818E1,1.283296E0,2.2461329E0,1.270705E0,1.2807596E0,2.5818486E0,1.3025646E0,6.1828194E0,2.2486036E0,3.9861214E1,3.8580376E1,1.2808359E0,1.2786056E0,3.730177E1],"tree_param":{"num_deleted":"0","num_feature":"512","num_nodes":"29","size_leaf_vector":"0"}},{"base_weights":[-6.976211E-2,5.939848E-1,-2.783409E-1,1.2118149E0,-1.745447E-1,1.2817633E0,-3.666295E-1,1.5153501E0,-3.514451E-1,9.523404E-1,-5.32059E-1,4.449987E-1,-4.9304003E-1,3.9466912E-1,1.9896187E0,1.697742E0,-4.9583507E-1,-5.371449E-1,5.269649E-1,-3.4888896E-1,9.607512E-1,3.8035575E-1,-5.8365905E-1,8.774375E-2,-6.081717E-1],"categories":[],"categories_nodes":[],"categories_segments":[],"categories_sizes":[],"default_left":[1,1,1,1,1,0,1,1,0,0,0,1,1,1,0,0,0,1,0,0,0,0,1,0,0],"id":13,"left_children":[1,3,5,7,9,-1,11,13,-1,-1,-1,15,17,19,-1,-1,-1,21,-1,-1,-1,-1,23,-1,-1],"loss_changes":[9.296897E0,7.851504E0,7.476536E0,4.8247128E0,3.747734E0,0E0,5.238674E0,3.3408413E0,0E0,0E0,0E0,9.231594E0,2.2086554E0,1.8319E0,0E0,0E0,0E0,1.9941254E0,0E0,0E0,0E0,0E0,7.102852E-1,0E0,0E0],"parents":[2147483647,0,0,1,1,2,2,3,3,4,4,6,6,7,7,11,11,12,12,13,13,17,17,22,22],"right_children":[2,4,6,8,10,-1,12,14,-1,-1,-1,16,18,20,-1,-1,-1,22,-1,-1,-1,-1,24,-1,-1],"split_conditions":[2.7044842E-1,4.6558422E-1,2.4819683E-2,1.4227465E-1,3.903125E-1,1.2817632E-2,1.823977E-1,1.1712604E0,-3.514451E-3,9.523404E-3,-5.32059E-3,7.2146076E-1,1.3628184E0,1.651333E0,1.9896187E-2,1.697742E-2,-4.9583507E-3,3.143779E-1,5.269649E-3,-3.4888897E-3,9.607512E-3,3.8035575E-3,9.031471E-3,8.774375E-4,-6.081717E-3],"split_indices":[355,293,410,160,68,0,464,309,0,0,0,183,47,169,0,0,0,494,0,0,0,0,390,0,0],"split_type":[0,0,0,0,0,0,0,0,0,0,0,0,0,0,0,0,0,0,0,0,0,0,0,0,0],"sum_hessian":[6.4958786E1,1.5090258E1,4.986853E1,8.0455475E0,7.0447097E0,1.9469566E0,4.7921574E1,6.7630305E0,1.2825174E0,1.2959843E0,5.7487254E0,6.1183004E0,4.1803272E1,2.5558364E0,4.207194E0,2.2791064E0,3.8391938E0,4.0524395E1,1.2788789E0,1.2705827E0,1.2852538E0,1.6090164E0,3.891538E1,1.2798814E0,3.7635498E1],"tree_param":{"num_deleted":"0","num_feature":"512","num_nodes":"25","size_leaf_vector":"0"}},{"base_weights":[-3.4962443E-1,8.592475E-1,-4.5544183E-1,1.5845674E0,-4.0925288E-1,9.603365E-1,-5.004526E-1,9.587836E-2,-5.5951405E-1,1.1471726E0,-4.9394435E-1,5.2462924E-1,-5.9429145E-1,9.0384364E-2,-6.1217624E-1],"categories":[],"categories_nodes":[],"categories_segments":[],"categories_sizes":[],"default_left":[1,1,1,0,0,0,1,1,1,0,0,0,1,0,0],"id":14,"left_children":[1,3,5,-1,-1,-1,7,9,11,-1,-1,-1,13,-1,-1],"loss_changes":[9.073811E0,5.9936595E0,4.499424E0,0E0,0E0,0E0,2.229518E0,4.548159E0,2.4366932E0,0E0,0E0,0E0,7.2974205E-1,0E0,0E0],"parents":[2147483647,0,0,1,1,2,2,6,6,7,7,8,8,12,12],"right_children":[2,4,6,-1,-1,-1,8,10,12,-1,-1,-1,14,-1,-1],"split_conditions":[4.0096515E-1,8.895051E-1,9.338723E-2,1.5845673E-2,-4.092529E-3,9.603364E-3,1.7093365E-1,2.3158886E-1,5.599499E-2,1.1471725E-2,-4.9394434E-3,5.2462923E-3,7.119259E-2,9.038436E-4,-6.121762E-3],"split_indices":[32,342,127,0,0,0,328,143,205,0,0,0,488,0,0],"split_type":[0,0,0,0,0,0,0,0,0,0,0,0,0,0,0],"sum_hessian":[6.6874405E1,4.809536E0,6.2064865E1,2.9013803E0,1.9081554E0,1.2857838E0,6.0779083E1,5.421007E0,5.5358074E1,1.6087112E0,3.812296E0,1.2828068E0,5.4075268E1,1.2733775E0,5.280189E1],"tree_param":{"num_deleted":"0","num_feature":"512","num_nodes":"15","size_leaf_vector":"0"}},{"base_weights":[6.9801724E-1,1.3443552E-1,1.1608763E0,-6.656201E-2,1.3105971E0,-4.9689192E-1,1.3542739E0,-3.3153638E-1,6.717087E-1,7.173669E-2,1.740116E0,1.5688667E0,-6.5752845E-3,-4.9138042E-1,5.506641E-1,-4.5146385E-1,1.270257E0,-1.2784854E-1,1.707885E0,9.4844216E-1,-4.886377E-1,5.204885E-1,-5.9112686E-1,1.3670962E0,-3.8603875E-1,1.83357E0,-3.5116497E-1,2.2665407E-1,1.8892215E0,9.476472E-1,-4.1431335E-1,6.0484666E-1,2.0724692E0,1.4987994E0,-4.1120902E-1,2.6352248E-1,2.2375655E0],"categories":[],"categories_nodes":[],"categories_segments":[],"categories_sizes":[],"default_left":[1,1,1,1,1,0,1,1,1,0,0,1,1,1,1,0,1,0,1,0,0,0,0,0,0,0,0,1,1,0,0,1,1,0,0,0,0],"id":15,"left_children":[1,3,5,7,9,-1,11,13,15,-1,-1,17,19,21,23,-1,25,-1,27,-1,-1,-1,-1,-1,-1,-1,-1,29,31,-1,-1,33,35,-1,-1,-1,-1],"loss_changes":[1.8653412E1,8.0413685E0,1.3324066E1,6.0301733E0,2.5139313E0,0E0,1.0408203E1,3.445636E0,6.0668488E0,0E0,0E0,7.4738464E0,3.154688E0,2.2849422E0,3.5296822E0,0E0,5.752198E0,0E0,7.226982E0,0E0,0E0,0E0,0E0,0E0,0E0,0E0,0E0,2.3543098E0,4.6905518E0,0E0,0E0,4.7632046E0,5.8880386E0,0E0,0E0,0E0,0E0],"parents":[2147483647,0,0,1,1,2,2,3,3,4,4,6,6,7,7,8,8,11,11,12,12,13,13,14,14,16,16,18,18,27,27,28,28,31,31,32,32],"right_children":[2,4,6,8,10,-1,12,14,16,-1,-1,18,20,22,24,-1,26,-1,28,-1,-1,-1,-1,-1,-1,-1,-1,30,32,-1,-1,34,36,-1,-1,-1,-1],"split_conditions":[1.4054613E0,8.414317E-1,5.8333836E-2,1.807354E0,4.5549583E-1,-4.968919E-3,1.0874346E0,5.7499313E-1,9.4173765E-1,7.1736693E-4,1.7401159E-2,9.68516E-2,7.4938214E-1,1.4791409E-2,5.4440236E-1,-4.5146383E-3,1.00890025E-1,-1.2784853E-3,9.449372E-1,9.484421E-3,-4.8863767E-3,5.204885E-3,-5.9112683E-3,1.3670961E-2,-3.8603875E-3,1.83357E-2,-3.5116496E-3,2.5924888E-2,1.24037616E-1,9.476472E-3,-4.1431333E-3,1.5855784E0,5.3853346E-3,1.4987994E-2,-4.11209E-3,2.6352247E-3,2.2375654E-2],"split_indices":[209,145,115,98,354,0,212,375,181,0,0,465,4,339,267,0,12,0,196,0,0,0,0,0,0,0,0,5,244,0,0,185,330,0,0,0,0],"split_type":[0,0,0,0,0,0,0,0,0,0,0,0,0,0,0,0,0,0,0,0,0,0,0,0,0,0,0,0,0,0,0,0,0,0,0,0,0],"sum_hessian":[7.1105934E1,3.2646133E1,3.8459797E1,2.8687117E1,3.9590144E0,3.8540783E0,3.460572E1,2.1515772E1,7.171345E0,1.3196805E0,2.639334E0,2.9759995E1,4.845725E0,1.859042E1,2.925353E0,2.5785139E0,4.592831E0,2.2597783E0,2.7500217E1,1.3009452E0,3.5447798E0,1.2896421E0,1.7300777E1,1.3175217E0,1.6078314E0,3.3115091E0,1.2813221E0,3.2448525E0,2.4255365E1,1.301921E0,1.9429317E0,3.5655165E0,2.0689848E1,1.643982E0,1.9215345E0,1.9474932E0,1.8742355E1],"tree_param":{"num_deleted":"0","num_feature":"512","num_nodes":"37","size_leaf_vector":"0"}},{"base_weights":[-2.6992422E-1,-4.143255E-1,6.064678E-1,-5.203519E-1,5.055853E-1,1.6504906E0,-1.0775205E-1,5.2953106E-1,-5.553577E-1,-2.6249185E-1,1.4124686E0,-5.14689E-1,9.682994E-1,1.744309E-1,-6.1058396E-1,-4.3047154E-1,9.203409E-2,-4.314562E-1,9.518755E-1],"categories":[],"categories_nodes":[],"categories_segments":[],"categories_sizes":[],"default_left":[1,1,1,1,1,0,1,0,1,1,0,0,0,1,0,0,0,0,0],"id":16,"left_children":[1,3,5,7,9,-1,11,-1,13,15,-1,-1,-1,17,-1,-1,-1,-1,-1],"loss_changes":[9.063059E0,6.1516476E0,7.825119E0,2.3017464E0,5.0701475E0,0E0,3.576013E0,0E0,2.2568073E0,3.0737704E-1,0E0,0E0,0E0,2.5450854E0,0E0,0E0,0E0,0E0,0E0],"parents":[2147483647,0,0,1,1,2,2,3,3,4,4,6,6,8,8,9,9,13,13],"right_children":[2,4,6,8,10,-1,12,-1,14,16,-1,-1,-1,18,-1,-1,-1,-1,-1],"split_conditions":[1.7025164E0,1.4776087E0,1.2903923E-1,4.543018E-2,1.0808533E-1,1.6504906E-2,1.9508502E0,5.2953106E-3,3.5883423E-2,3.2636018E0,1.4124685E-2,-5.14689E-3,9.682993E-3,6.417923E-1,-6.1058393E-3,-4.3047154E-3,9.203408E-4,-4.314562E-3,9.518755E-3],"split_indices":[35,420,388,139,388,0,118,0,100,48,0,0,0,451,0,0,0,0,0],"split_type":[0,0,0,0,0,0,0,0,0,0,0,0,0,0,0,0,0,0,0],"sum_hessian":[6.862966E1,5.9373974E1,9.255689E0,5.3627377E1,5.7465987E0,3.2272713E0,6.0284176E0,1.2745507E0,5.2352825E1,3.4961336E0,2.250465E0,4.752734E0,1.2756835E0,3.531199E0,4.882163E1,2.2268171E0,1.2693166E0,2.2346773E0,1.2965217E0],"tree_param":{"num_deleted":"0","num_feature":"512","num_nodes":"19","size_leaf_vector":"0"}},{"base_weights":[-2.910915E-2,-2.5444126E-1,4.6987176E-1,-3.2630172E-1,9.532373E-1,1.5547422E0,-6.5016486E-2,-4.0447485E-1,9.517105E-1,2.7248538E-1,1.9738226E0,-4.7491992E-1,7.5469303E-1,-5.0651807E-1,3.9869064E-1,-5.594064E-1,9.257157E-2,-4.1126764E-1,1.4917859E0,-5.551427E-1,5.2354103E-1,-4.4810218E-1,1.2834774E0,5.104542E-2,-6.063751E-1,-3.840295E-1,5.2300763E-1],"categories":[],"categories_nodes":[],"categories_segments":[],"categories_sizes":[],"default_left":[1,1,1,1,0,1,1,1,0,0,0,1,1,1,1,0,0,0,0,1,0,0,0,1,0,0,0],"id":17,"left_children":[1,3,5,7,-1,9,11,13,-1,-1,-1,15,17,19,21,-1,-1,-1,-1,23,-1,-1,-1,25,-1,-1,-1],"loss_changes":[7.7851057E0,4.443353E0,1.2612551E1,4.949325E0,0E0,3.3097973E0,5.5331073E0,3.787993E0,0E0,0E0,0E0,5.7345724E-1,5.35773E0,2.2571745E0,4.689912E0,0E0,0E0,0E0,0E0,1.2104292E0,0E0,0E0,0E0,9.979744E-1,0E0,0E0,0E0],"parents":[2147483647,0,0,1,1,2,2,3,3,5,5,6,6,7,7,11,11,12,12,13,13,14,14,19,19,23,23],"right_children":[2,4,6,8,-1,10,12,14,-1,-1,-1,16,18,20,22,-1,-1,-1,-1,24,-1,-1,-1,26,-1,-1,-1],"split_conditions":[7.7628714E-1,2.2826042E0,2.655656E-1,1.3481474E0,9.5323725E-3,8.9625016E-2,5.5822265E-1,3.6998868E-1,9.517105E-3,2.7248536E-3,1.9738225E-2,3.077245E0,4.4966054E-1,2.3661733E0,3.9530116E-1,-5.594064E-3,9.257157E-4,-4.1126763E-3,1.4917859E-2,1.175646E-1,5.2354103E-3,-4.481022E-3,1.2834774E-2,1.3999112E0,-6.063751E-3,-3.840295E-3,5.230076E-3],"split_indices":[351,457,274,21,0,172,102,387,0,0,0,58,51,302,14,0,0,0,0,289,0,0,0,161,0,0,0],"split_type":[0,0,0,0,0,0,0,0,0,0,0,0,0,0,0,0,0,0,0,0,0,0,0,0,0,0,0],"sum_hessian":[6.7176765E1,4.6615845E1,2.0560919E1,4.4686665E1,1.9291787E0,6.16014E0,1.440078E1,4.275495E1,1.9317124E0,1.9238747E0,4.236265E0,9.880545E0,4.520235E0,3.8262947E1,4.4920073E0,8.612576E0,1.2679685E0,1.9219944E0,2.5982406E0,3.6978413E1,1.2845342E0,2.5474737E0,1.9445338E0,2.8819916E0,3.409642E1,1.5965431E0,1.2854487E0],"tree_param":{"num_deleted":"0","num_feature":"512","num_nodes":"27","size_leaf_vector":"0"}},{"base_weights":[-6.851463E-2,1.0739665E0,-1.902014E-1,-4.1071582E-1,1.7370265E0,-3.4642857E-1,5.1395327E-1,-4.9313638E-1,2.7971426E-1,1.2237012E0,-3.6008248E-1,7.698713E-1,-5.604939E-1,1.2129192E0,-5.2616704E-1,-3.4991264E-1,1.6486571E0,-4.9692765E-1,9.070496E-2,5.204295E-2,-6.0758704E-1,1.815916E0,-3.5319924E-1,1.8735552E0,5.1547414E-1,5.233147E-1,-3.8336125E-1],"categories":[],"categories_nodes":[],"categories_segments":[],"categories_sizes":[],"default_left":[1,1,1,0,0,1,1,1,1,1,1,0,1,1,0,0,1,0,0,1,0,0,0,0,0,0,0],"id":18,"left_children":[1,3,5,-1,-1,7,9,11,13,15,17,-1,19,21,-1,-1,23,-1,-1,25,-1,-1,-1,-1,-1,-1,-1],"loss_changes":[9.855733E0,7.440019E0,7.1734204E0,0E0,0E0,4.97349E0,7.853248E0,4.0904837E0,8.633E0,5.138667E0,4.2306644E-1,0E0,1.2261705E0,5.5792007E0,0E0,0E0,4.4770527E-1,0E0,0E0,9.962699E-1,0E0,0E0,0E0,0E0,0E0,0E0,0E0],"parents":[2147483647,0,0,1,1,2,2,5,5,6,6,7,7,8,8,9,9,10,10,12,12,13,13,16,16,19,19],"right_children":[2,4,6,-1,-1,8,10,12,14,16,18,-1,20,22,-1,-1,24,-1,-1,26,-1,-1,-1,-1,-1,-1,-1],"split_conditions":[4.3755624E-2,1.1701655E0,2.3508294E-1,-4.107158E-3,1.7370265E-2,5.4410875E-1,2.34191E-1,7.6652646E-2,2.2384013E-1,1.1055402E-1,2.6696324E-1,7.698713E-3,1.248018E-1,3.8561076E-1,-5.2616703E-3,-3.4991263E-3,3.1397384E-1,-4.9692765E-3,9.0704963E-4,4.4514167E-1,-6.0758702E-3,1.8159159E-2,-3.5319924E-3,1.8735552E-2,5.1547415E-3,5.233147E-3,-3.8336124E-3],"split_indices":[410,254,470,0,0,278,375,55,384,504,232,0,33,277,0,0,125,0,0,20,0,0,0,0,0,0,0],"split_type":[0,0,0,0,0,0,0,0,0,0,0,0,0,0,0,0,0,0,0,0,0,0,0,0,0,0,0],"sum_hessian":[6.8422585E1,5.832962E0,6.2589622E1,1.9182694E0,3.9146929E0,5.1640446E1,1.0949179E1,4.20098E1,9.630644E0,5.8216963E0,5.127482E0,1.5989306E0,4.041087E1,4.228725E0,5.4019184E0,1.2754159E0,4.5462804E0,3.854899E0,1.2725831E0,2.877562E0,3.7533306E1,2.9380121E0,1.2907127E0,3.2482562E0,1.2980242E0,1.2849045E0,1.5926576E0],"tree_param":{"num_deleted":"0","num_feature":"512","num_nodes":"27","size_leaf_vector":"0"}},{"base_weights":[-3.1999362E-1,5.8606994E-1,-4.0152028E-1,1.4076308E0,-4.289084E-1,3.6372846E-1,-5.1115865E-1,1.1783102E0,-4.8426065E-1,-5.8926463E-1,8.0010694E-1,1.6220381E0,8.790274E-2,-6.0974777E-1,9.019547E-2],"categories":[],"categories_nodes":[],"categories_segments":[],"categories_sizes":[],"default_left":[1,1,1,0,0,1,1,1,0,1,0,0,0,0,0],"id":19,"left_children":[1,3,5,-1,-1,7,9,11,-1,13,-1,-1,-1,-1,-1],"loss_changes":[4.767614E0,5.1663313E0,4.9585915E0,0E0,0E0,5.8983407E0,5.6099653E0,1.901763E0,0E0,7.22023E-1,0E0,0E0,0E0,0E0,0E0],"parents":[2147483647,0,0,1,1,2,2,5,5,6,6,7,7,9,9],"right_children":[2,4,6,-1,-1,8,10,12,-1,14,-1,-1,-1,-1,-1],"split_conditions":[2.4503265E-1,6.329663E-1,1.0032337E-1,1.4076307E-2,-4.289084E-3,1.5022981E0,7.117976E-1,2.9340163E-1,-4.8426064E-3,4.2306337E-1,8.00107E-3,1.6220381E-2,8.7902736E-4,-6.0974774E-3,9.0195466E-4],"split_indices":[471,287,55,0,0,497,307,39,0,470,0,0,0,0,0],"split_type":[0,0,0,0,0,0,0,0,0,0,0,0,0,0,0],"sum_hessian":[6.0356384E1,4.4716034E0,5.588478E1,2.257468E0,2.2141356E0,6.712896E0,4.9171886E1,3.225211E0,3.4876847E0,4.692726E1,2.244625E0,1.9458277E0,1.2793832E0,4.565358E1,1.2736816E0],"tree_param":{"num_deleted":"0","num_feature":"512","num_nodes":"15","size_leaf_vector":"0"}},{"base_weights":[7.4320585E-1,1.2948933E0,3.655992E-1,1.5380307E0,-2.671391E-1,9.7206455E-1,-9.036466E-3,1.6624614E0,-3.5367608E-1,8.8644095E-2,-4.3398905E-1,1.4015057E0,-2.9394755E-1,-2.2395201E-1,1.2816293E0,1.7912191E0,-3.826164E-3,-3.5113707E-1,1.6409655E0,8.400452E-2,-4.5292974E-1,-3.662218E-1,7.815864E-1,1.974646E0,3.7185848E-1,1.7936438E-1,2.0045316E0,7.5138444E-1,-4.9489155E-1,1.1765844E0,8.9707196E-2,2.116876E0,7.567874E-2,9.4233894E-1,-3.5808766E-1,5.1630676E-1,-5.926629E-1,5.127828E-1,2.2176003E0],"categories":[],"categories_nodes":[],"categories_segments":[],"categories_sizes":[],"default_left":[1,1,1,1,1,1,1,1,0,0,0,1,1,1,0,1,0,0,1,0,0,1,1,1,1,0,0,0,1,0,0,1,0,0,0,0,0,0,0],"id":20,"left_children":[1,3,5,7,9,11,13,15,-1,-1,-1,17,19,21,-1,23,-1,-1,25,-1,-1,27,29,31,33,-1,-1,-1,35,-1,-1,37,-1,-1,-1,-1,-1,-1,-1],"loss_changes":[1.3737297E1,1.0788616E1,9.526438E0,6.1884384E0,3.075257E-1,9.113619E0,7.7445683E0,4.834095E0,0E0,0E0,0E0,5.6647453E0,3.3131018E-1,3.7051353E0,0E0,4.70385E0,0E0,0E0,5.4025326E0,0E0,0E0,3.480491E0,7.9119897E-1,4.773102E0,1.8459085E0,0E0,0E0,0E0,2.2821832E0,0E0,0E0,1.6024094E0,0E0,0E0,0E0,0E0,0E0,0E0,0E0],"parents":[2147483647,0,0,1,1,2,2,3,3,4,4,5,5,6,6,7,7,11,11,12,12,13,13,15,15,18,18,21,21,22,22,23,23,24,24,28,28,31,31],"right_children":[2,4,6,8,10,12,14,16,-1,-1,-1,18,20,22,-1,24,-1,-1,26,-1,-1,28,30,32,34,-1,-1,-1,36,-1,-1,38,-1,-1,-1,-1,-1,-1,-1],"split_conditions":[2.3140836E0,2.9701905E0,2.0910637E0,1.2050389E0,3.676017E-1,3.9686984E-1,2.4628997E-1,1.1322299E0,-3.5367608E-3,8.864409E-4,-4.3398906E-3,8.346314E-2,6.15709E-1,1.1548038E0,1.2816293E-2,3.8441846E-1,-3.8261638E-5,-3.5113706E-3,1.6462116E-1,8.400452E-4,-4.5292974E-3,1.8005458E-1,3.3336708E-1,3.201791E-1,3.379407E-1,1.7936438E-3,2.0045316E-2,7.5138444E-3,7.480079E-1,1.1765843E-2,8.9707196E-4,4.1973E-2,7.567874E-4,9.423389E-3,-3.5808764E-3,5.1630675E-3,-5.9266286E-3,5.127828E-3,2.2176003E-2],"split_indices":[192,506,337,212,271,264,292,21,0,0,0,186,251,332,0,400,0,0,197,0,0,508,15,510,0,0,0,0,86,0,0,56,0,0,0,0,0,0,0],"split_type":[0,0,0,0,0,0,0,0,0,0,0,0,0,0,0,0,0,0,0,0,0,0,0,0,0,0,0,0,0,0,0,0,0,0,0,0,0,0,0],"sum_hessian":[6.721549E1,2.6325068E1,4.0890427E1,2.2792654E1,3.5324154E0,1.5005165E1,2.5885262E1,2.1499657E1,1.2929959E0,1.2773571E0,2.255058E0,1.1124593E1,3.880572E0,2.2898754E1,2.9865084E0,1.98879E1,1.6117586E0,1.2811668E0,9.843426E0,1.2886484E0,2.5919237E0,2.0617462E1,2.2812905E0,1.726543E1,2.6224687E0,2.2582405E0,7.5851855E0,1.6289568E0,1.8988506E1,1.0062518E0,1.2750387E0,1.59556265E1,1.3098034E0,1.3086998E0,1.313769E0,1.2966948E0,1.769181E1,1.3025622E0,1.4653064E1],"tree_param":{"num_deleted":"0","num_feature":"512","num_nodes":"39","size_leaf_vector":"0"}},{"base_weights":[-3.4893823E-1,-4.1098985E-1,9.4630545E-1,3.289773E-1,-4.9978554E-1,8.70565E-2,1.3879263E0,-4.9269974E-1,1.1871907E0,-5.605215E-1,3.9388016E-1,1.6324205E0,9.040941E-2,-5.9365815E-1,2.7247766E-1,1.3787198E0,-4.3092224E-1,-6.1107564E-1,9.414482E-2],"categories":[],"categories_nodes":[],"categories_segments":[],"categories_sizes":[],"default_left":[1,1,1,1,1,0,0,0,1,1,1,0,0,1,0,0,0,0,0],"id":21,"left_children":[1,3,5,7,9,-1,-1,-1,11,13,15,-1,-1,17,-1,-1,-1,-1,-1],"loss_changes":[6.145509E0,4.701214E0,1.2366064E0,6.2269697E0,3.5884953E0,0E0,0E0,0E0,1.9066515E0,1.7768097E0,4.278522E0,0E0,0E0,7.3542213E-1,0E0,0E0,0E0,0E0,0E0],"parents":[2147483647,0,0,1,1,2,2,3,3,4,4,8,8,9,9,10,10,13,13],"right_children":[2,4,6,8,10,-1,-1,-1,12,14,16,-1,-1,18,-1,-1,-1,-1,-1],"split_conditions":[3.0344415E0,6.777825E-1,8.6238295E-1,6.2911546E-1,6.550703E-1,8.70565E-4,1.3879263E-2,-4.9269972E-3,3.7531154E0,3.0115707E0,1.4827263E0,1.6324205E-2,9.0409414E-4,1.4808056E0,2.7247765E-3,1.3787198E-2,-4.309222E-3,-6.110756E-3,9.414482E-4],"split_indices":[37,230,27,257,162,0,0,0,3,118,233,0,0,212,0,0,0,0,0],"split_type":[0,0,0,0,0,0,0,0,0,0,0,0,0,0,0,0,0,0,0],"sum_hessian":[7.062429E1,6.804703E1,2.5772574E0,7.000919E0,6.1046112E1,1.2813334E0,1.2959238E0,3.7941735E0,3.2067454E0,5.7510338E1,3.5357742E0,1.9334872E0,1.2732582E0,5.5586433E1,1.9239023E0,1.3054503E0,2.230324E0,5.4322365E1,1.2640712E0],"tree_param":{"num_deleted":"0","num_feature":"512","num_nodes":"19","size_leaf_vector":"0"}},{"base_weights":[1.4891145E-1,7.1217835E-1,-1.8248083E-1,1.1868181E0,-1.6201054E-1,-2.7720726E-1,1.0950705E0,1.5666546E0,-8.236668E-2,1.116286E0,-5.492299E-1,-4.1642755E-1,5.5935866E-1,-6.602907E-2,1.8528382E0,5.2152765E-1,-4.483674E-1,6.672702E-1,-5.1780754E-1,-2.6195434E-1,1.6214932E0,8.21337E-2,2.077394E0,1.3721058E0,-3.474507E-1,3.9192152E-1,-5.741598E-1,9.1475956E-2,-4.2976034E-1,-6.041295E-1,9.099961E-2],"categories":[],"categories_nodes":[],"categories_segments":[],"categories_sizes":[],"default_left":[1,1,1,1,1,1,0,1,1,0,0,1,1,0,1,0,0,1,1,1,0,0,0,0,0,0,1,0,0,0,0],"id":22,"left_children":[1,3,5,7,9,11,-1,13,15,-1,-1,17,19,-1,21,-1,-1,23,25,27,-1,-1,-1,-1,-1,-1,29,-1,-1,-1,-1],"loss_changes":[1.3057407E1,1.0921043E1,5.6765947E0,8.265808E0,5.5523977E0,5.139905E0,0E0,6.2155E0,1.3031195E0,0E0,0E0,4.3769097E0,6.0408516E0,0E0,4.254936E0,0E0,0E0,3.034337E0,1.9740925E0,3.0569136E-1,0E0,0E0,0E0,0E0,0E0,0E0,7.035198E-1,0E0,0E0,0E0,0E0],"parents":[2147483647,0,0,1,1,2,2,3,3,4,4,5,5,7,7,8,8,11,11,12,12,14,14,17,17,18,18,19,19,26,26],"right_children":[2,4,6,8,10,12,-1,14,16,-1,-1,18,20,-1,22,-1,-1,24,26,28,-1,-1,-1,-1,-1,-1,30,-1,-1,-1,-1],"split_conditions":[4.297768E-1,2.2967502E-1,1.7393768E0,1.9231758E0,6.291108E-1,4.2817307E-1,1.0950704E-2,1.3369119E-1,6.310373E-2,1.116286E-2,-5.492299E-3,5.5444418E-3,1.2860107E0,-6.602907E-4,2.6601616E-2,5.2152765E-3,-4.4836737E-3,3.7067753E-1,1.1588387E-1,4.2857796E-1,1.6214931E-2,8.21337E-4,2.077394E-2,1.3721058E-2,-3.474507E-3,3.919215E-3,1.6432599E0,9.147595E-4,-4.2976034E-3,-6.041295E-3,9.099961E-4],"split_indices":[289,232,49,18,95,376,0,55,502,0,0,252,484,0,6,0,0,9,430,8,0,0,0,0,0,0,460,0,0,0,0],"split_type":[0,0,0,0,0,0,0,0,0,0,0,0,0,0,0,0,0,0,0,0,0,0,0,0,0,0,0,0,0,0,0],"sum_hessian":[6.8255806E1,2.4857132E1,4.3398678E1,1.5878368E1,8.978763E0,4.1131893E1,2.2667842E0,1.2040545E1,3.8378232E0,1.6497494E0,7.3290133E0,3.5693962E1,5.437929E0,1.9104818E0,1.0130064E1,1.287891E0,2.549932E0,2.5760026E0,3.311796E1,3.4914656E0,1.9464633E0,1.2937942E0,8.836269E0,1.3122795E0,1.2637231E0,1.584445E0,3.1533516E1,1.2704773E0,2.2209883E0,3.026178E1,1.271736E0],"tree_param":{"num_deleted":"0","num_feature":"512","num_nodes":"31","size_leaf_vector":"0"}},{"base_weights":[-1.4787257E-1,3.903629E-1,-3.987088E-1,1.1042209E0,-2.5479856E-1,-4.929275E-1,4.6018746E-1,1.5586089E0,-4.318105E-1,1.1320106E0,-5.66656E-1,5.220561E-1,-5.3678125E-1,1.4952054E0,-4.4634056E-1,-6.9686095E-3,1.9279674E0,2.741791E-1,-5.828088E-1,-6.074034E-1,8.9394145E-2],"categories":[],"categories_nodes":[],"categories_segments":[],"categories_sizes":[],"default_left":[1,1,1,1,1,1,1,1,0,0,0,0,1,0,0,0,0,0,1,0,0],"id":23,"left_children":[1,3,5,7,9,11,13,15,-1,-1,-1,-1,17,-1,-1,-1,-1,-1,19,-1,-1],"loss_changes":[9.391781E0,1.0529783E1,4.0431294E0,8.176921E0,6.0480328E0,2.1933022E0,5.526681E0,4.9366455E0,0E0,0E0,0E0,0E0,1.7160416E0,0E0,0E0,0E0,0E0,0E0,7.118559E-1,0E0,0E0],"parents":[2147483647,0,0,1,1,2,2,3,3,4,4,5,5,6,6,7,7,12,12,18,18],"right_children":[2,4,6,8,10,12,14,16,-1,-1,-1,-1,18,-1,-1,-1,-1,-1,20,-1,-1],"split_conditions":[1.3280922E-1,4.2763993E-1,1.8369367E0,1.4075596E0,6.323321E-2,3.1774247E-1,4.0346704E0,4.2834826E-2,-4.318105E-3,1.1320106E-2,-5.66656E-3,5.220561E-3,3.4560196E-2,1.4952053E-2,-4.4634053E-3,-6.9686095E-5,1.9279674E-2,2.7417908E-3,1.4334084E0,-6.0740337E-3,8.9394144E-4],"split_indices":[303,193,129,348,91,499,477,6,0,0,0,0,100,0,0,0,0,0,235,0,0],"split_type":[0,0,0,0,0,0,0,0,0,0,0,0,0,0,0,0,0,0,0,0,0],"sum_hessian":[6.7411316E1,2.1252409E1,4.6158905E1,9.751277E0,1.1501131E1,4.197991E1,4.1789947E0,7.5138383E0,2.2374382E0,1.6286657E0,9.872466E0,1.2870483E0,4.0692863E1,1.6480157E0,2.530979E0,1.6215987E0,5.8922396E0,1.9193273E0,3.8773537E1,3.749796E1,1.2755787E0],"tree_param":{"num_deleted":"0","num_feature":"512","num_nodes":"21","size_leaf_vector":"0"}},{"base_weights":[-3.181512E-1,-4.199662E-1,7.135933E-1,9.4921315E-1,-4.648066E-1,1.5775714E0,-4.4621396E-1,-5.0856364E-1,3.079566E-1,2.4270599E-1,-5.5661607E-1,-3.8341036E-1,9.559238E-1,9.60033E-1,-4.0744668E-1,1.0998692E-1,-5.915089E-1,5.213121E-1,-3.5098007E-1,-6.103379E-1,9.1841586E-2],"categories":[],"categories_nodes":[],"categories_segments":[],"categories_sizes":[],"default_left":[1,1,1,0,1,0,0,1,1,1,1,0,0,0,0,1,1,0,0,0,0],"id":24,"left_children":[1,3,5,-1,7,-1,-1,9,11,13,15,-1,-1,-1,-1,17,19,-1,-1,-1,-1],"loss_changes":[7.4012566E0,4.257556E0,7.1597013E0,0E0,2.2145662E0,0E0,0E0,2.2280788E0,2.106646E0,2.3414025E0,1.3395767E0,0E0,0E0,0E0,0E0,8.5963255E-1,7.280388E-1,0E0,0E0,0E0,0E0],"parents":[2147483647,0,0,1,1,2,2,4,4,7,7,8,8,9,9,10,10,15,15,16,16],"right_children":[2,4,6,-1,8,-1,-1,10,12,14,16,-1,-1,-1,-1,18,20,-1,-1,-1,-1],"split_conditions":[3.4276003E-1,6.210696E-1,3.6093712E-1,9.492131E-3,7.6782316E-1,1.5775714E-2,-4.4621397E-3,2.2048736E-4,1.5776267E0,3.0288717E-1,3.379975E-1,-3.8341035E-3,9.559237E-3,9.60033E-3,-4.074467E-3,4.9968815E-1,1.3312516E0,5.213121E-3,-3.5098006E-3,-6.103379E-3,9.1841584E-4],"split_indices":[227,120,30,0,307,0,0,407,65,63,181,0,0,0,0,271,238,0,0,0,0],"split_type":[0,0,0,0,0,0,0,0,0,0,0,0,0,0,0,0,0,0,0,0,0],"sum_hessian":[6.660372E1,6.116115E1,5.442572E0,1.2999232E0,5.986123E1,2.9126458E0,2.529926E0,5.6976852E1,2.8843758E0,3.181726E0,5.3795128E1,1.5929838E0,1.291392E0,1.2861085E0,1.8956175E0,2.5687566E0,5.1226368E1,1.2882917E0,1.2804648E0,4.9956715E1,1.269657E0],"tree_param":{"num_deleted":"0","num_feature":"512","num_nodes":"21","size_leaf_vector":"0"}},{"base_weights":[6.836021E-1,1.243412E0,2.142131E-1,-4.5143834E-1,1.4116169E0,-1.670321E-1,8.654383E-1,1.8156554E0,6.863995E-1,1.1076922E0,-3.0371776E-1,-3.614074E-1,1.581793E0,6.7752354E-2,1.9526205E0,1.2553269E0,-4.9158174E-1,4.3104932E-1,-5.372957E-1,-4.9721622E-1,8.562848E-2,1.9340948E0,-3.5134026E-1,2.1000185E0,3.7384257E-1,1.7178043E0,-3.9015037E-1,-2.4580441E-1,1.249107E0,9.6621186E-2,-5.8960754E-1,5.000315E-1,1.9267039E0,8.141806E-2,-4.1657993E-1],"categories":[],"categories_nodes":[],"categories_segments":[],"categories_sizes":[],"default_left":[1,1,1,0,1,1,1,1,1,0,1,1,1,0,1,1,0,1,1,0,0,0,0,0,0,1,0,1,0,0,0,0,0,0,0],"id":25,"left_children":[1,3,5,-1,7,9,11,13,15,-1,17,19,21,-1,23,25,-1,27,29,-1,-1,-1,-1,-1,-1,31,-1,33,-1,-1,-1,-1,-1,-1,-1],"loss_changes":[1.785231E1,9.543041E0,9.75622E0,0E0,7.151928E0,4.7370462E0,1.327727E1,4.128742E0,8.567238E0,0E0,4.2811813E0,4.155581E-1,7.0224075E0,0E0,3.0474854E0,6.9717264E0,0E0,3.7657049E0,6.654482E-1,0E0,0E0,0E0,0E0,0E0,0E0,7.2803307E-1,0E0,2.7162525E-1,0E0,0E0,0E0,0E0,0E0,0E0,0E0],"parents":[2147483647,0,0,1,1,2,2,4,4,5,5,6,6,7,7,8,8,10,10,11,11,12,12,14,14,15,15,17,17,18,18,25,25,27,27],"right_children":[2,4,6,-1,8,10,12,14,16,-1,18,20,22,-1,24,26,-1,28,30,-1,-1,-1,-1,-1,-1,32,-1,34,-1,-1,-1,-1,-1,-1,-1],"split_conditions":[5.6561494E-1,5.682341E-3,3.2894757E-1,-4.514383E-3,1.1134324E0,7.966785E-3,1.6186423E0,1.4615466E-1,1.6326586E0,1.10769225E-2,7.110587E-1,8.5338876E-2,2.3448494E-1,6.775235E-4,2.8316693E0,1.4615955E0,-4.915817E-3,2.2665927E-1,1.4481899E-1,-4.972162E-3,8.5628475E-4,1.9340947E-2,-3.5134025E-3,2.1000184E-2,3.7384257E-3,4.0857E-1,-3.9015035E-3,2.5960457E-2,1.249107E-2,9.6621184E-4,-5.896075E-3,5.0003147E-3,1.926704E-2,8.141806E-4,-4.1657994E-3],"split_indices":[208,93,138,0,28,57,325,223,429,0,161,69,510,0,450,251,0,376,488,0,0,0,0,0,0,313,0,12,0,0,0,0,0,0,0],"split_type":[0,0,0,0,0,0,0,0,0,0,0,0,0,0,0,0,0,0,0,0,0,0,0,0,0,0,0,0,0,0,0,0,0,0,0],"sum_hessian":[6.795293E1,3.0239372E1,3.7713554E1,2.578117E0,2.7661255E1,2.4256588E1,1.34569645E1,1.679866E1,1.0862596E1,1.6611199E0,2.2595469E1,5.1435285E0,8.3134365E0,1.3292967E0,1.5469363E1,7.2806263E0,3.581969E0,5.246406E0,1.7349062E1,3.858938E0,1.2845906E0,7.031492E0,1.2819443E0,1.3846473E1,1.6228902E0,5.648972E0,1.631654E0,3.2537823E0,1.992624E0,1.2579653E0,1.6091097E1,1.3240595E0,4.324913E0,1.2952338E0,1.9585484E0],"tree_param":{"num_deleted":"0","num_feature":"512","num_nodes":"35","size_leaf_vector":"0"}},{"base_weights":[-4.3146697E-1,-5.2064E-1,4.5294863E-1,3.0739143E-1,-5.63839E-1,-2.8553557E-1,1.4006212E0,-3.824193E-1,9.5000595E-1,-5.9469634E-1,1.17257684E-1,9.396078E-2,-4.4752753E-1,9.767623E-2,-6.111838E-1,-3.475105E-1,5.278186E-1],"categories":[],"categories_nodes":[],"categories_segments":[],"categories_sizes":[],"default_left":[1,1,1,1,1,1,0,0,0,1,1,0,0,0,0,0,0],"id":26,"left_children":[1,3,5,7,9,11,-1,-1,-1,13,15,-1,-1,-1,-1,-1,-1],"loss_changes":[5.866598E0,2.5099163E0,5.350703E0,2.0859497E0,1.3819485E0,3.3753416E-1,0E0,0E0,0E0,7.434273E-1,8.591782E-1,0E0,0E0,0E0,0E0,0E0,0E0],"parents":[2147483647,0,0,1,1,2,2,3,3,4,4,5,5,9,9,10,10],"right_children":[2,4,6,8,10,12,-1,-1,-1,14,16,-1,-1,-1,-1,-1,-1],"split_conditions":[2.4059455E0,5.500406E-3,1.0470667E0,2.7034106E0,1.9675431E0,3.7412673E-1,1.4006211E-2,-3.8241928E-3,9.500059E-3,4.8872632E-1,1.7092421E0,9.3960774E-4,-4.475275E-3,9.767623E-4,-6.111838E-3,-3.4751047E-3,5.278186E-3],"split_indices":[118,311,79,44,279,124,0,0,0,338,27,0,0,0,0,0,0],"split_type":[0,0,0,0,0,0,0,0,0,0,0,0,0,0,0,0,0],"sum_hessian":[7.039671E1,6.432257E1,6.0741415E0,2.886122E0,6.1436447E1,3.8065464E0,2.267595E0,1.5872253E0,1.2988967E0,5.8895042E1,2.5414062E0,1.2644061E0,2.5421405E0,1.255313E0,5.763973E1,1.2640417E0,1.2773644E0],"tree_param":{"num_deleted":"0","num_feature":"512","num_nodes":"17","size_leaf_vector":"0"}},{"base_weights":[1.5173827E-1,-7.330919E-2,7.98617E-1,1.1049697E0,-2.2129506E-1,-4.8498648E-1,1.1792418E0,1.8116865E0,-3.863635E-1,4.0599662E-1,-3.8042906E-1,7.37291E-2,1.6911196E0,-3.7065604E-1,1.5721195E0,-4.818371E-1,5.6888276E-1,-4.629864E-1,9.405882E-1,1.9538316E0,8.282344E-2,8.954589E-2,-5.0234264E-1,5.19591E-1,-5.398799E-1,1.3898807E0,-3.813098E-1,3.6591533E-1,-6.024492E-1],"categories":[],"categories_nodes":[],"categories_segments":[],"categories_sizes":[],"default_left":[1,1,1,1,1,0,1,0,0,1,1,1,1,1,0,1,1,0,0,0,0,0,0,0,1,0,0,0,0],"id":27,"left_children":[1,3,5,7,9,-1,11,-1,-1,13,15,17,19,21,-1,23,25,-1,-1,-1,-1,-1,-1,-1,27,-1,-1,-1,-1],"loss_changes":[9.352872E0,8.663327E0,8.663871E0,6.553782E0,4.519479E0,0E0,7.269146E0,0E0,0E0,9.034487E0,3.6815505E0,2.84585E0,3.5923347E0,4.3348277E-1,0E0,2.170807E0,3.552647E0,0E0,0E0,0E0,0E0,0E0,0E0,0E0,1.9903765E0,0E0,0E0,0E0,0E0],"parents":[2147483647,0,0,1,1,2,2,3,3,4,4,6,6,9,9,10,10,11,11,12,12,13,13,15,15,16,16,24,24],"right_children":[2,4,6,8,10,-1,12,-1,-1,14,16,18,20,22,-1,24,26,-1,-1,-1,-1,-1,-1,-1,28,-1,-1,-1,-1],"split_conditions":[8.402584E-1,9.0689704E-2,2.8788996E-1,1.5890424E-1,8.895145E-2,-4.8498646E-3,1.0706029E0,1.8116865E-2,-3.863635E-3,6.875372E-1,4.549676E0,9.0676785E-1,5.7902473E-1,2.9400783E-3,1.5721194E-2,4.8672542E-4,6.99955E-1,-4.629864E-3,9.405881E-3,1.9538315E-2,8.2823436E-4,8.954589E-4,-5.0234264E-3,5.1959096E-3,5.324835E-3,1.3898807E-2,-3.813098E-3,3.6591531E-3,-6.0244915E-3],"split_indices":[473,281,351,53,287,0,334,0,0,77,263,221,365,340,0,467,27,0,0,0,0,0,0,0,91,0,0,0,0],"split_type":[0,0,0,0,0,0,0,0,0,0,0,0,0,0,0,0,0,0,0,0,0,0,0,0,0,0,0,0,0],"sum_hessian":[6.284412E1,4.728163E1,1.5562487E1,4.5541654E0,4.2727467E1,3.4965796E0,1.20659075E1,2.9441667E0,1.6099987E0,8.33204E0,3.4395428E1,4.180732E0,7.885175E0,5.410635E0,2.921405E0,3.1520733E1,2.8746934E0,2.8697996E0,1.310932E0,6.5933228E0,1.2918524E0,1.2749847E0,4.13565E0,1.2912142E0,3.0229519E1,1.2939458E0,1.5807477E0,1.6399742E0,2.8589544E1],"tree_param":{"num_deleted":"0","num_feature":"512","num_nodes":"29","size_leaf_vector":"0"}},{"base_weights":[-1.0324155E-1,6.975092E-1,-2.581837E-1,-9.0371445E-2,1.5787725E0,9.2919755E-1,-3.4842235E-1,9.3512064E-1,-5.095501E-1,1.8009945E0,5.116814E-1,-3.5107717E-1,1.5985687E0,-4.1461438E-1,7.884872E-1,2.5050142E-1,-5.3912777E-1,9.350011E-2,1.1812185E0,1.2691575E0,-2.348505E-1,-5.841889E-1,5.1935655E-1,-5.088357E-1,5.175371E-1,9.347916E-2,-6.0761744E-1],"categories":[],"categories_nodes":[],"categories_segments":[],"categories_sizes":[],"default_left":[1,1,1,1,1,1,1,0,0,0,0,0,0,1,1,1,1,0,0,0,1,1,0,0,0,0,0],"id":28,"left_children":[1,3,5,7,9,11,13,-1,-1,-1,-1,-1,-1,15,17,19,21,-1,-1,-1,23,25,-1,-1,-1,-1,-1],"loss_changes":[8.420451E0,7.806728E0,6.3646317E0,3.3882415E0,3.2681656E-1,4.2074738E0,4.3247476E0,0E0,0E0,0E0,0E0,0E0,0E0,4.346801E0,7.813709E-1,4.6004705E0,2.3617287E0,0E0,0E0,0E0,1.652287E0,7.214489E-1,0E0,0E0,0E0,0E0,0E0],"parents":[2147483647,0,0,1,1,2,2,3,3,4,4,5,5,6,6,13,13,14,14,15,15,16,16,20,20,21,21],"right_children":[2,4,6,8,10,12,14,-1,-1,-1,-1,-1,-1,16,18,20,22,-1,-1,-1,24,26,-1,-1,-1,-1,-1],"split_conditions":[3.7029734E-1,6.114501E-1,1.3247785E-2,5.5142157E-3,3.5173133E-1,1.3323095E-1,9.629102E-1,9.351206E-3,-5.095501E-3,1.8009944E-2,5.116814E-3,-3.5107716E-3,1.5985686E-2,4.359618E-2,7.3481905E-1,3.9658323E-2,3.1749344E0,9.3500107E-4,1.1812185E-2,1.2691575E-2,1.1099854E0,9.411101E-2,5.1935655E-3,-5.088357E-3,5.175371E-3,9.347915E-4,-6.0761743E-3],"split_indices":[262,70,303,228,272,480,34,0,0,0,0,0,0,356,4,445,343,0,0,0,279,205,0,0,0,0,0],"split_type":[0,0,0,0,0,0,0,0,0,0,0,0,0,0,0,0,0,0,0,0,0,0,0,0,0,0,0],"sum_hessian":[6.5417046E1,1.0038047E1,5.5378994E1,5.77365E0,4.264396E0,3.2547758E0,5.2124218E1,1.3181196E0,4.4555306E0,2.9601777E0,1.3042185E0,1.2807181E0,1.9740576E0,4.985682E1,2.2674012E0,7.7021637E0,4.2154655E1,1.2656868E0,1.0017145E0,1.9643874E0,5.7377763E0,4.0863144E1,1.2915101E0,4.443399E0,1.2943773E0,1.2656082E0,3.9597538E1],"tree_param":{"num_deleted":"0","num_feature":"512","num_nodes":"27","size_leaf_vector":"0"}},{"base_weights":[-3.534552E-1,-5.5838853E-1,5.8562074E-2,-6.0619015E-1,5.251477E-1,-2.970244E-1,1.2245795E0,-5.784229E-1,7.0490354E-1,1.8157686E0,-3.4684783E-1,1.4938005E0,-3.8040006E-1],"categories":[],"categories_nodes":[],"categories_segments":[],"categories_sizes":[],"default_left":[1,1,1,0,0,1,1,0,1,0,0,0,0],"id":29,"left_children":[1,3,5,-1,-1,7,9,-1,11,-1,-1,-1,-1],"loss_changes":[5.2455277E0,2.4587412E0,9.241714E0,0E0,0E0,5.260851E0,5.45981E0,0E0,4.1857557E0,0E0,0E0,0E0,0E0],"parents":[2147483647,0,0,1,1,2,2,5,5,6,6,8,8],"right_children":[2,4,6,-1,-1,8,10,-1,12,-1,-1,-1,-1],"split_conditions":[2.1580194E-1,2.0898762E0,3.8038933E-1,-6.0619013E-3,5.2514765E-3,2.982868E-1,1.7184937E0,-5.784229E-3,8.411472E-1,1.8157685E-2,-3.4684783E-3,1.4938005E-2,-3.8040006E-3],"split_indices":[60,126,413,0,0,304,50,0,126,0,0,0,0],"split_type":[0,0,0,0,0,0,0,0,0,0,0,0,0],"sum_hessian":[6.0736984E1,4.0324646E1,2.0412336E1,3.9042767E1,1.2818776E0,1.6213242E1,4.1990943E0,1.2988126E1,3.225116E0,2.938214E0,1.2608802E0,1.6496277E0,1.5754883E0],"tree_param":{"num_deleted":"0","num_feature":"512","num_nodes":"13","size_leaf_vector":"0"}},{"base_weights":[5.808872E-1,1.847639E-1,1.1461295E0,-1.4675343E-1,8.427026E-1,-1.2590334E-1,1.3786757E0,5.143991E-1,-4.455608E-1,-2.942498E-1,1.3094693E0,-4.778641E-1,6.7621267E-1,1.5794991E0,-1.7701602E-1,-3.1881624E-1,1.2816195E0,2.2780481E-1,-5.891361E-1,8.3530255E-2,-4.5311454E-1,1.5965589E0,-3.5553497E-1,1.7226086E0,-3.5165477E-1,-3.5487238E-1,7.705733E-2,1.82867E-1,-4.8011377E-1,6.921575E-2,1.6971351E0,1.1758996E0,-4.3124598E-1,2.4615775E-1,1.9565015E0,-1.2169982E-2,1.8799245E0,7.3629186E-2,2.0166652E0,4.9576905E-1,2.1153715E0],"categories":[],"categories_nodes":[],"categories_segments":[],"categories_sizes":[],"default_left":[1,1,1,1,1,1,1,1,1,1,1,0,0,1,1,1,1,1,0,0,0,1,0,1,0,0,0,0,0,0,0,0,0,0,0,0,1,0,1,0,0],"id":30,"left_children":[1,3,5,7,9,11,13,15,17,19,21,-1,-1,23,25,27,29,31,-1,-1,-1,33,-1,35,-1,-1,-1,-1,-1,-1,-1,-1,-1,-1,-1,-1,37,-1,39,-1,-1],"loss_changes":[1.5048798E1,9.124348E0,8.423931E0,5.8182774E0,7.801305E0,1.7988272E0,7.6726646E0,6.3347235E0,2.0697784E0,3.3095154E-1,5.3909283E0,0E0,0E0,6.4258156E0,1.9023827E-1,5.12208E-1,2.4142323E0,3.1562653E0,0E0,0E0,0E0,3.790245E0,0E0,5.419857E0,0E0,0E0,0E0,0E0,0E0,0E0,0E0,0E0,0E0,0E0,0E0,0E0,4.331497E0,0E0,1.47686E0,0E0,0E0],"parents":[2147483647,0,0,1,1,2,2,3,3,4,4,5,5,6,6,7,7,8,8,9,9,10,10,13,13,14,14,15,15,16,16,17,17,21,21,23,23,36,36,38,38],"right_children":[2,4,6,8,10,12,14,16,18,20,22,-1,-1,24,26,28,30,32,-1,-1,-1,34,-1,36,-1,-1,-1,-1,-1,-1,-1,-1,-1,-1,-1,-1,38,-1,40,-1,-1],"split_conditions":[2.6295943E0,1.9395635E-1,7.3037195E-1,4.2736134E-1,3.5343677E-1,3.0416927E-1,2.4664845E0,1.3706855E0,2.0211443E-1,3.6967653E-1,1.384095E0,-4.778641E-3,6.7621265E-3,4.9474664E0,7.996498E-1,4.1693607E-1,1.6989685E0,3.8457522E0,-5.8913613E-3,8.353025E-4,-4.531145E-3,9.798877E-2,-3.5553495E-3,3.799448E-1,-3.5165476E-3,-3.5487236E-3,7.7057333E-4,1.82867E-3,-4.801138E-3,6.921575E-4,1.697135E-2,1.1758996E-2,-4.31246E-3,2.4615775E-3,1.9565014E-2,-1.2169982E-4,4.481778E-1,7.362918E-4,4.7698113E-4,4.9576904E-3,2.1153715E-2],"split_indices":[305,122,342,126,168,93,149,149,96,80,78,0,0,270,38,14,58,3,0,0,0,210,0,428,0,0,0,0,0,0,0,0,0,0,0,0,257,0,391,0,0],"split_type":[0,0,0,0,0,0,0,0,0,0,0,0,0,0,0,0,0,0,0,0,0,0,0,0,0,0,0,0,0,0,0,0,0,0,0,0,0,0,0,0,0],"sum_hessian":[6.715621E1,4.0265156E1,2.6891056E1,2.7290945E1,1.2974211E1,4.2271333E0,2.2663923E1,8.270287E0,1.9020658E1,3.8837514E0,9.09046E0,3.2189395E0,1.008194E0,2.0059189E1,2.6047337E0,4.2448044E0,4.025482E0,3.2397282E0,1.578093E1,1.2901003E0,2.593651E0,7.7886105E0,1.3018491E0,1.8775787E1,1.2834022E0,1.2988095E0,1.3059242E0,1.0001904E0,3.2446141E0,1.3252387E0,2.7002435E0,1.0069383E0,2.23279E0,1.9934897E0,5.7951207E0,1.637802E0,1.7137985E1,1.3143511E0,1.5823633E1,1.3314172E0,1.4492216E1],"tree_param":{"num_deleted":"0","num_feature":"512","num_nodes":"41","size_leaf_vector":"0"}},{"base_weights":[-3.074423E-1,-3.9643487E-1,9.4741774E-1,3.6926815E-1,-4.9058163E-1,-3.4839347E-1,1.5038157E0,-4.825095E-1,1.1843091E0,-5.39763E-1,7.6975554E-1,9.34151E-2,1.6211579E0,-5.7386386E-1,5.1889074E-1,5.7278024E-3,-6.092022E-1,5.278496E-1,-4.0714827E-1],"categories":[],"categories_nodes":[],"categories_segments":[],"categories_sizes":[],"default_left":[1,1,1,1,1,0,0,0,1,1,0,0,0,1,0,1,0,0,0],"id":31,"left_children":[1,3,5,7,9,-1,-1,-1,11,13,-1,-1,-1,15,-1,17,-1,-1,-1],"loss_changes":[8.053356E0,4.8599977E0,4.0191884E0,5.9010983E0,4.0246973E0,0E0,0E0,0E0,1.8560972E0,2.3421059E0,0E0,0E0,0E0,1.1368694E0,0E0,1.1139946E0,0E0,0E0,0E0],"parents":[2147483647,0,0,1,1,2,2,3,3,4,4,8,8,9,9,13,13,15,15],"right_children":[2,4,6,8,10,-1,-1,-1,12,14,-1,-1,-1,16,-1,18,-1,-1,-1],"split_conditions":[1.7222441E0,3.260486E-1,2.3293567E-1,1.7842472E-1,2.4400983E0,-3.4839346E-3,1.5038156E-2,-4.8250947E-3,1.5437803E-1,1.355629E0,7.6975552E-3,9.3415094E-4,1.6211579E-2,4.862643E-2,5.1889075E-3,6.092514E-1,-6.0920217E-3,5.278496E-3,-4.0714825E-3],"split_indices":[313,46,62,125,428,0,0,0,168,321,0,0,0,77,0,7,0,0,0],"split_type":[0,0,0,0,0,0,0,0,0,0,0,0,0,0,0,0,0,0,0],"sum_hessian":[6.7752075E1,6.3904175E1,3.8478973E0,6.6770372E0,5.722714E1,1.2681971E0,2.5797002E0,3.4644387E0,3.2125988E0,5.5628128E1,1.5990098E0,1.2657127E0,1.946886E0,5.433582E1,1.2923107E0,3.1706867E0,5.116513E1,1.2771443E0,1.8935425E0],"tree_param":{"num_deleted":"0","num_feature":"512","num_nodes":"19","size_leaf_vector":"0"}},{"base_weights":[-3.461664E-2,6.161174E-1,-2.063741E-1,1.3768755E0,-9.272433E-2,-2.9082575E-1,8.068032E-1,-9.079277E-4,1.7658122E0,-5.3501487E-1,1.1183391E0,5.5142846E-2,-5.113815E-1,1.5701673E0,-3.852554E-1,-3.2277793E-1,8.576975E-1,-5.708401E-1,5.171493E-1,3.966027E-1,-5.7101214E-1,1.3985001E0,-4.0997088E-1,-6.021178E-1,9.174461E-2,-4.2801592E-1,1.3660903E0,1.8121817E0,8.018343E-2],"categories":[],"categories_nodes":[],"categories_segments":[],"categories_sizes":[],"default_left":[1,1,1,1,1,1,1,0,0,0,0,1,1,0,0,1,1,1,0,1,0,1,0,0,0,0,0,0,0],"id":32,"left_children":[1,3,5,7,9,11,13,-1,-1,-1,-1,15,17,-1,-1,19,21,23,-1,25,-1,27,-1,-1,-1,-1,-1,-1,-1],"loss_changes":[8.003553E0,8.198742E0,5.069352E0,3.9039383E0,5.2502623E0,4.0640926E0,4.802046E0,0E0,0E0,0E0,0E0,6.7960196E0,2.2764711E0,0E0,0E0,2.9656987E0,5.478227E0,6.998062E-1,0E0,4.2025204E0,0E0,2.7133675E0,0E0,0E0,0E0,0E0,0E0,0E0,0E0],"parents":[2147483647,0,0,1,1,2,2,3,3,4,4,5,5,6,6,11,11,12,12,15,15,16,16,17,17,19,19,21,21],"right_children":[2,4,6,8,10,12,14,-1,-1,-1,-1,16,18,-1,-1,20,22,24,-1,26,-1,28,-1,-1,-1,-1,-1,-1,-1],"split_conditions":[4.4520557E-2,5.5391794E-1,2.399301E0,7.891539E-1,1.6549918E-1,1.1215776E-1,1.7415477E-1,-9.079276E-6,1.7658122E-2,-5.350149E-3,1.118339E-2,4.341648E-1,1.2906973E0,1.5701672E-2,-3.852554E-3,2.5334102E-1,8.2285464E-1,3.9279797E0,5.171493E-3,2.1052125E-1,-5.7101212E-3,1.5522116E0,-4.0997085E-3,-6.021178E-3,9.1744604E-4,-4.2801592E-3,1.3660903E-2,1.8121816E-2,8.018343E-4],"split_indices":[502,308,484,482,333,224,1,0,0,0,0,173,281,0,0,165,140,314,0,182,0,103,0,0,0,0,0,0,0],"split_type":[0,0,0,0,0,0,0,0,0,0,0,0,0,0,0,0,0,0,0,0,0,0,0,0,0,0,0,0,0],"sum_hessian":[6.947073E1,1.3967021E1,5.550371E1,6.2822366E0,7.6847844E0,5.1891354E1,3.612359E0,1.6026425E0,4.679594E0,6.0379143E0,1.6468701E0,2.0493998E1,3.1397356E1,2.0087905E0,1.6035684E0,1.43394165E1,6.15458E0,3.0102165E1,1.2951903E0,3.5253334E0,1.0814083E1,4.2417793E0,1.9128008E0,2.8832378E1,1.269788E0,2.2068028E0,1.3185306E0,2.9435036E0,1.2982757E0],"tree_param":{"num_deleted":"0","num_feature":"512","num_nodes":"29","size_leaf_vector":"0"}},{"base_weights":[-5.7510585E-2,-3.476985E-1,4.692357E-1,-5.377565E-1,1.6372862E-1,8.236126E-1,-5.3082114E-1,3.7990835E-1,-6.009431E-1,1.3749595E0,-2.5739378E-1,-3.2715836E-1,1.2384928E0,9.4583476E-1,-5.501667E-1,-4.76148E-1,9.325482E-2,1.8438345E0,1.6434014E-1,5.064908E-1,2.021946E0,-4.864052E-1,1.3545257E0],"categories":[],"categories_nodes":[],"categories_segments":[],"categories_sizes":[],"default_left":[1,1,1,1,1,1,0,0,0,0,1,1,1,0,0,0,0,1,1,0,0,0,0],"id":33,"left_children":[1,3,5,7,9,11,-1,-1,-1,-1,13,15,17,-1,-1,-1,-1,19,21,-1,-1,-1,-1],"loss_changes":[1.0031303E1,4.1900005E0,8.715157E0,2.025838E0,6.5770154E0,8.826323E0,0E0,0E0,0E0,0E0,4.0061626E0,3.8671672E-1,8.262699E0,0E0,0E0,0E0,0E0,9.5946693E-1,5.1865754E0,0E0,0E0,0E0,0E0],"parents":[2147483647,0,0,1,1,2,2,3,3,4,4,5,5,10,10,11,11,12,12,17,17,18,18],"right_children":[2,4,6,8,10,12,-1,-1,-1,-1,14,16,18,-1,-1,-1,-1,20,22,-1,-1,-1,-1],"split_conditions":[4.4182968E-1,1.3679128E0,1.5739567E0,8.989446E-3,1.026906E0,1.4280874E-1,-5.3082113E-3,3.7990834E-3,-6.0094306E-3,1.3749595E-2,2.0438251E-1,4.3455836E-1,1.5732479E0,9.458347E-3,-5.501667E-3,-4.76148E-3,9.325482E-4,2.3442563E-1,6.2300336E-1,5.064908E-3,2.0219458E-2,-4.864052E-3,1.3545256E-2],"split_indices":[61,505,509,253,338,15,0,0,0,0,131,145,334,0,0,0,0,293,418,0,0,0,0],"split_type":[0,0,0,0,0,0,0,0,0,0,0,0,0,0,0,0,0,0,0,0,0,0,0],"sum_hessian":[6.355872E1,4.120083E1,2.2357891E1,3.0000483E1,1.1200347E1,1.6638397E1,5.7194934E0,1.609729E0,2.8390755E1,2.305187E0,8.89516E0,4.4650207E0,1.2173377E1,1.3042771E0,7.5908823E0,3.1988227E0,1.2661978E0,7.3274336E0,4.845943E0,1.3129408E0,6.014493E0,3.5152605E0,1.3306825E0],"tree_param":{"num_deleted":"0","num_feature":"512","num_nodes":"23","size_leaf_vector":"0"}},{"base_weights":[-3.9896712E-1,-4.52737E-1,1.3697792E0,4.8066443E-1,-5.0543463E-1,1.3749894E0,-4.0461785E-1,9.7434424E-2,-5.612857E-1,-4.8162434E-1,9.367183E-1,-5.9381264E-1,5.1661766E-1,-6.105598E-1,9.493518E-2],"categories":[],"categories_nodes":[],"categories_segments":[],"categories_sizes":[],"default_left":[1,1,0,1,1,0,0,1,1,0,0,1,0,0,0],"id":34,"left_children":[1,3,-1,5,7,-1,-1,9,11,-1,-1,13,-1,-1,-1],"loss_changes":[7.281022E0,3.6232471E0,0E0,3.8698149E0,2.2613754E0,0E0,0E0,3.5657809E0,2.4149246E0,0E0,0E0,7.3656845E-1,0E0,0E0,0E0],"parents":[2147483647,0,0,1,1,3,3,4,4,7,7,8,8,11,11],"right_children":[2,4,-1,6,8,-1,-1,10,12,-1,-1,14,-1,-1,-1],"split_conditions":[3.0946612E0,6.251651E-2,1.3697792E-2,9.912648E-1,1.6429788E-1,1.3749894E-2,-4.0461784E-3,7.190861E-1,1.2472892E0,-4.8162434E-3,9.367183E-3,1.8371681E0,5.1661762E-3,-6.105598E-3,9.4935176E-4],"split_indices":[136,186,0,48,271,0,0,33,430,0,0,140,0,0,0],"split_type":[0,0,0,0,0,0,0,0,0,0,0,0,0,0,0],"sum_hessian":[6.903679E1,6.772207E1,1.3147167E0,3.1851003E0,6.453697E1,1.3092809E0,1.8758194E0,5.408784E0,5.9128185E1,3.4527373E0,1.9560466E0,5.7832138E1,1.2960453E0,5.6570133E1,1.2620043E0],"tree_param":{"num_deleted":"0","num_feature":"512","num_nodes":"15","size_leaf_vector":"0"}},{"base_weights":[6.9147545E-1,1.0311065E-1,9.725941E-1,-1.5334903E-1,1.496676E0,4.06214E-2,1.1689317E0,-3.121318E-1,1.3263316E0,-4.021574E-1,8.9251816E-1,1.3415457E0,-4.2741396E-2,-5.2598304E-1,3.2827938E-1,1.8272611E-1,-5.2627563E-1,1.3185307E0,7.215856E-2,1.5727752E0,4.4613087E-1,1.1545192E0,-5.043918E-1,8.781365E-2,-5.846911E-1,1.3471252E0,-2.6853302E-1,1.6770276E0,-3.5544637E-1,1.2585061E0,-1.8412586E-1,1.8188186E-1,-4.47343E-1,1.615613E-1,1.8099964E0,1.8158242E-1,1.5548787E0,-5.002424E-1,6.8227994E-1,-3.5703838E-1,6.7744476E-1,1.9321992E0,2.5137654E-1],"categories":[],"categories_nodes":[],"categories_segments":[],"categories_sizes":[],"default_left":[1,1,1,1,0,1,1,1,0,1,1,1,1,1,1,0,0,0,0,1,1,0,0,0,0,0,1,1,0,1,1,0,0,1,1,0,0,0,0,0,0,0,0],"id":35,"left_children":[1,3,5,7,-1,9,11,13,-1,15,17,19,21,23,25,-1,-1,-1,-1,27,29,-1,-1,-1,-1,-1,31,33,-1,35,37,-1,-1,39,41,-1,-1,-1,-1,-1,-1,-1,-1],"loss_changes":[1.2341103E1,9.321037E0,9.24456E0,5.6748586E0,0E0,4.0828547E0,8.822662E0,3.0529473E0,0E0,6.177918E-1,1.1934075E0,6.8998337E0,4.006386E0,6.333294E-1,3.9374697E0,0E0,0E0,0E0,0E0,6.382057E0,4.80447E0,0E0,0E0,0E0,0E0,0E0,4.4717884E-1,5.2453613E0,0E0,1.0037384E0,1.9576743E0,0E0,0E0,1.1286948E0,4.307724E0,0E0,0E0,0E0,0E0,0E0,0E0,0E0,0E0],"parents":[2147483647,0,0,1,1,2,2,3,3,5,5,6,6,7,7,9,9,10,10,11,11,12,12,13,13,14,14,19,19,20,20,26,26,27,27,29,29,30,30,33,33,34,34],"right_children":[2,4,6,8,-1,10,12,14,-1,16,18,20,22,24,26,-1,-1,-1,-1,28,30,-1,-1,-1,-1,-1,32,34,-1,36,38,-1,-1,40,42,-1,-1,-1,-1,-1,-1,-1,-1],"split_conditions":[4.228232E-1,6.719069E-1,2.1321535E-1,2.2042067E0,1.4966759E-2,7.311071E-1,8.597425E-1,3.455615E-1,1.3263316E-2,2.942901E-1,5.732753E-1,1.5328012E0,7.5643495E-2,2.3912415E-2,7.234756E-1,1.8272611E-3,-5.2627563E-3,1.3185306E-2,7.215856E-4,1.5351164E0,2.6475495E-1,1.15451915E-2,-5.043918E-3,8.781365E-4,-5.846911E-3,1.3471251E-2,3.4451474E-2,3.0073944E-1,-3.5544636E-3,4.529621E-1,1.870408E0,1.8188185E-3,-4.4734296E-3,2.4836852E-1,9.7903574E-1,1.8158242E-3,1.5548787E-2,-5.002424E-3,6.8227993E-3,-3.5703836E-3,6.7744474E-3,1.9321991E-2,2.5137654E-3],"split_indices":[205,456,464,454,0,289,415,138,0,7,28,28,6,229,181,0,0,0,0,140,435,0,0,0,0,0,190,258,0,42,465,0,0,1,15,0,0,0,0,0,0,0,0],"split_type":[0,0,0,0,0,0,0,0,0,0,0,0,0,0,0,0,0,0,0,0,0,0,0,0,0,0,0,0,0,0,0,0,0,0,0,0,0,0,0,0,0,0,0],"sum_hessian":[7.421984E1,2.4438425E1,4.9781414E1,2.1391651E1,3.0467744E0,8.872493E0,4.0908924E1,2.0031183E1,1.3604677E0,6.1854777E0,2.6870146E0,3.571396E1,5.194966E0,1.5150639E1,4.880544E0,1.0001702E0,5.1853075E0,1.3688908E0,1.3181239E0,2.7782896E1,7.9310603E0,1.0280173E0,4.1669483E0,1.2793359E0,1.3871303E1,1.3384368E0,3.542107E0,2.6481411E1,1.301486E0,3.0294316E0,4.901629E0,1.0016963E0,2.540411E0,2.3147607E0,2.416665E1,1.0018201E0,2.0276117E0,3.900952E0,1.0006768E0,1.3078916E0,1.0068691E0,2.2187372E1,1.979277E0],"tree_param":{"num_deleted":"0","num_feature":"512","num_nodes":"43","size_leaf_vector":"0"}},{"base_weights":[-3.3938655E-1,1.0944649E0,-4.0753782E-1,4.100632E-1,-5.0543404E-1,1.172546E0,-4.7063807E-1,-5.5493516E-1,4.9168208E-1,1.6112907E0,8.817259E-2,-2.4378335E-2,-6.0799384E-1,7.6514053E-1,-4.8136824E-1],"categories":[],"categories_nodes":[],"categories_segments":[],"categories_sizes":[],"default_left":[1,0,1,1,1,1,0,1,0,0,0,1,0,0,0],"id":36,"left_children":[1,-1,3,5,7,9,-1,11,-1,-1,-1,13,-1,-1,-1],"loss_changes":[6.8991766E0,0E0,5.311426E0,5.501734E0,3.1059732E0,1.8738155E0,0E0,1.5377998E0,0E0,0E0,0E0,2.5533423E0,0E0,0E0,0E0],"parents":[2147483647,0,0,2,2,3,3,4,4,5,5,7,7,11,11],"right_children":[2,-1,4,6,8,10,-1,12,-1,-1,-1,14,-1,-1,-1],"split_conditions":[7.49575E-1,1.0944649E-2,1.5926841E-1,3.9524168E-1,1.3383962E0,1.308288E-3,-4.7063804E-3,2.726282E-1,4.9168207E-3,1.6112907E-2,8.817259E-4,5.521639E-1,-6.0799383E-3,7.651405E-3,-4.8136823E-3],"split_indices":[325,0,463,394,80,84,0,461,0,0,0,424,0,0,0],"split_type":[0,0,0,0,0,0,0,0,0,0,0,0,0,0,0],"sum_hessian":[6.5037865E1,2.2677052E0,6.277016E1,6.371176E0,5.6398987E1,3.2371652E0,3.1340108E0,5.4154007E1,2.2449796E0,1.9587309E0,1.2784343E0,5.0560284E0,4.9097977E1,1.6064093E0,3.449619E0],"tree_param":{"num_deleted":"0","num_feature":"512","num_nodes":"15","size_leaf_vector":"0"}},{"base_weights":[1.0440537E-1,-1.2977527E-1,7.0610476E-1,3.6192426E-1,-3.693095E-1,-1.5492739E-1,1.1813512E0,-2.2572209E-1,1.3933986E0,9.4347495E-1,-4.785109E-1,9.422203E-1,-5.263009E-1,-4.1020918E-1,1.5082678E0,-5.561347E-1,7.653301E-1,1.9091338E0,-3.4897268E-1,3.092093E-1,-5.66951E-1,-3.490122E-1,1.7994821E0,8.138227E-2,1.1637614E0,9.4659984E-1,-3.805851E-1,9.040696E-2,-6.0021305E-1,8.852534E-2,2.0608847E0],"categories":[],"categories_nodes":[],"categories_segments":[],"categories_sizes":[],"default_left":[1,1,1,1,1,1,1,1,1,0,1,0,0,0,1,0,1,0,0,1,1,0,1,0,0,0,0,0,0,0,0],"id":37,"left_children":[1,3,5,7,9,11,13,15,17,-1,19,-1,-1,-1,21,-1,23,-1,-1,25,27,-1,29,-1,-1,-1,-1,-1,-1,-1,-1],"loss_changes":[9.6707115E0,5.9967856E0,8.040161E0,1.050499E1,5.3211527E0,3.6385317E0,7.116398E0,4.2145634E0,6.274581E0,0E0,2.4062662E0,0E0,0E0,0E0,6.347145E0,0E0,8.08365E-1,0E0,0E0,2.0659862E0,6.914997E-1,0E0,3.9783936E0,0E0,0E0,0E0,0E0,0E0,0E0,0E0,0E0],"parents":[2147483647,0,0,1,1,2,2,3,3,4,4,5,5,6,6,7,7,8,8,10,10,14,14,16,16,19,19,20,20,22,22],"right_children":[2,4,6,8,10,12,14,16,18,-1,20,-1,-1,-1,22,-1,24,-1,-1,26,28,-1,30,-1,-1,-1,-1,-1,-1,-1,-1],"split_conditions":[6.417291E-1,8.3170764E-2,1.0814034E-1,4.4398618E-1,6.412863E-2,2.1701831E-2,3.503453E-2,4.194119E-1,2.944688E0,9.434749E-3,1.8582676E-2,9.422203E-3,-5.263009E-3,-4.102092E-3,6.828921E-2,-5.5613467E-3,6.163975E-1,1.9091338E-2,-3.4897267E-3,1.8764736E-1,5.853699E-2,-3.4901218E-3,4.0167055E0,8.1382267E-4,1.1637613E-2,9.465998E-3,-3.8058509E-3,9.040696E-4,-6.0021305E-3,8.8525336E-4,2.0608846E-2],"split_indices":[132,502,496,55,463,496,247,418,260,0,34,0,0,0,353,0,7,0,0,72,52,0,477,0,0,0,0,0,0,0,0],"split_type":[0,0,0,0,0,0,0,0,0,0,0,0,0,0,0,0,0,0,0,0,0,0,0,0,0,0,0,0,0,0,0],"sum_hessian":[6.698187E1,4.8780777E1,1.8201097E1,1.5812011E1,3.2968765E1,6.712917E0,1.1488181E1,1.0570822E1,5.2411895E0,1.945139E0,3.1023626E1,1.3089036E0,5.404013E0,1.9142187E0,9.573963E0,8.256863E0,2.3139591E0,3.9702892E0,1.2709005E0,2.8795693E0,2.8144056E1,1.2707864E0,8.303176E0,1.2950797E0,1.0188794E0,1.3031381E0,1.5764313E0,1.272746E0,2.6871311E1,1.2778598E0,7.025316E0],"tree_param":{"num_deleted":"0","num_feature":"512","num_nodes":"31","size_leaf_vector":"0"}},{"base_weights":[-8.22788E-2,4.2801124E-1,-3.1223547E-1,-2.5917384E-1,8.4430116E-1,-4.9462816E-1,4.960662E-1,9.343399E-1,-5.5066353E-1,-1.6134375E-3,1.4511155E0,-5.5880517E-1,3.988785E-1,1.1678663E0,-3.2502523E-1,1.112463E0,-5.150109E-1,1.794679E0,-3.4887353E-1,-6.059018E-1,1.9007735E-1,-3.4551257E-1,9.578452E-1,-3.4767506E-1,1.6551958E0,-4.73441E-1,8.992025E-2,4.9175453E-1,1.9923465E0],"categories":[],"categories_nodes":[],"categories_segments":[],"categories_sizes":[],"default_left":[1,1,1,1,1,1,1,0,0,1,1,1,1,1,1,0,0,1,0,0,0,0,0,0,0,0,0,0,0],"id":38,"left_children":[1,3,5,7,9,11,13,-1,-1,15,17,19,21,23,25,-1,-1,27,-1,-1,-1,-1,-1,-1,-1,-1,-1,-1,-1],"loss_changes":[9.145661E0,7.164416E0,8.135752E0,3.9672663E0,7.884182E0,2.7555723E0,6.090202E0,0E0,0E0,4.812732E0,6.1560307E0,1.5832472E0,1.8052702E0,4.9416466E0,3.7765104E-1,0E0,0E0,9.960575E-1,0E0,0E0,0E0,0E0,0E0,0E0,0E0,0E0,0E0,0E0,0E0],"parents":[2147483647,0,0,1,1,2,2,3,3,4,4,5,5,6,6,9,9,10,10,11,11,12,12,13,13,14,14,17,17],"right_children":[2,4,6,8,10,12,14,-1,-1,16,18,20,22,24,26,-1,-1,28,-1,-1,-1,-1,-1,-1,-1,-1,-1,-1,-1],"split_conditions":[5.328766E-1,1.7769983E0,1.1811516E0,4.394523E-2,3.952256E-1,2.170523E0,8.946981E-1,9.343399E-3,-5.506635E-3,1.6622043E0,3.121177E0,8.1714475E-1,9.1639616E-2,5.14884E-1,1.868325E0,1.11246295E-2,-5.1501086E-3,3.311994E-1,-3.4887353E-3,-6.0590175E-3,1.9007735E-3,-3.4551257E-3,9.5784515E-3,-3.4767506E-3,1.6551958E-2,-4.73441E-3,8.992025E-4,4.9175452E-3,1.9923465E-2],"split_indices":[180,248,432,218,420,505,168,0,0,357,142,253,176,2,338,0,0,51,0,0,0,0,0,0,0,0,0,0,0],"split_type":[0,0,0,0,0,0,0,0,0,0,0,0,0,0,0,0,0,0,0,0,0,0,0,0,0,0,0,0,0],"sum_hessian":[7.579963E1,2.3279503E1,5.2520123E1,8.92466E0,1.4354843E1,4.3167477E1,9.352645E0,1.318917E0,7.605743E0,6.412707E0,7.9421363E0,4.06242E1,2.54328E0,4.911678E0,4.4409676E0,1.6548357E0,4.757871E0,6.671666E0,1.2704701E0,3.840017E1,2.2240305E0,1.2545004E0,1.2887795E0,1.2648143E0,3.6468635E0,3.1671753E0,1.273792E0,1.3382672E0,5.333399E0],"tree_param":{"num_deleted":"0","num_feature":"512","num_nodes":"29","size_leaf_vector":"0"}},{"base_weights":[-4.1066918E-1,9.304636E-1,-4.9060658E-1,1.5827157E0,-3.4625426E-1,1.118901E0,-5.4898727E-1,-5.942789E-1,3.964781E-1,-6.101955E-1,9.876664E-2,9.566288E-1,-3.4665442E-1],"categories":[],"categories_nodes":[],"categories_segments":[],"categories_sizes":[],"default_left":[1,1,1,0,0,0,1,1,1,0,0,0,0],"id":39,"left_children":[1,3,5,-1,-1,-1,7,9,11,-1,-1,-1,-1],"loss_changes":[7.9010363E0,4.088345E0,6.8337164E0,0E0,0E0,0E0,2.9994888E0,7.441101E-1,1.8095245E0,0E0,0E0,0E0,0E0],"parents":[2147483647,0,0,1,1,2,2,6,6,7,7,8,8],"right_children":[2,4,6,-1,-1,-1,8,10,12,-1,-1,-1,-1],"split_conditions":[3.539251E-1,9.468609E-1,6.3124216E-1,1.5827157E-2,-3.4625425E-3,1.118901E-2,2.0438714E0,3.0324306E0,2.2297257E-1,-6.101955E-3,9.876664E-4,9.5662875E-3,-3.466544E-3],"split_indices":[181,32,120,0,0,0,126,65,22,0,0,0,0],"split_type":[0,0,0,0,0,0,0,0,0,0,0,0,0],"sum_hessian":[6.844107E1,3.2514045E0,6.518967E1,1.9933584E0,1.2580462E0,1.645971E0,6.3543694E1,6.099331E1,2.550384E0,5.9740833E1,1.2524772E0,1.2904155E0,1.2599685E0],"tree_param":{"num_deleted":"0","num_feature":"512","num_nodes":"13","size_leaf_vector":"0"}},{"base_weights":[5.7855433E-1,3.1833522E-2,1.0322919E0,-2.017123E-1,1.0189686E0,-3.682345E-1,1.2662402E0,1.2343175E0,-3.6505485E-1,1.4352874E0,-3.5427555E-1,1.8282108E-1,-5.085694E-1,-4.1612267E-1,1.3860351E0,9.080972E-1,-4.751141E-1,1.7358702E-1,1.7057202E0,1.5769984E0,-5.5545602E-2,6.7686856E-1,-5.553907E-1,-3.1953767E-1,1.6618097E0,6.8136036E-1,-4.5187253E-1,-5.973475E-1,8.185772E-2,1.7984703E0,1.6497815E-1,5.8774456E-2,1.8995295E0,-3.5505715E-1,6.7928255E-1],"categories":[],"categories_nodes":[],"categories_segments":[],"categories_sizes":[],"default_left":[1,1,1,1,1,1,1,0,1,1,0,0,0,0,1,0,1,0,0,1,1,0,1,0,1,0,0,0,0,1,1,0,0,0,0],"id":40,"left_children":[1,3,5,7,9,11,13,-1,15,17,-1,-1,-1,-1,19,-1,21,-1,-1,23,25,-1,27,-1,29,-1,-1,-1,-1,31,33,-1,-1,-1,-1],"loss_changes":[1.72823E1,7.741528E0,1.2953655E1,6.846928E0,4.1784463E0,5.7474226E-1,7.203762E0,0E0,3.970339E0,1.4522104E0,0E0,0E0,0E0,0E0,8.601521E0,0E0,2.5863833E0,0E0,0E0,4.929161E0,1.6465602E0,0E0,6.6103506E-1,0E0,5.09021E0,0E0,0E0,0E0,0E0,4.113167E0,1.1249073E0,0E0,0E0,0E0,0E0],"parents":[2147483647,0,0,1,1,2,2,3,3,4,4,5,5,6,6,8,8,9,9,14,14,16,16,19,19,20,20,22,22,24,24,29,29,30,30],"right_children":[2,4,6,8,10,12,14,-1,16,18,-1,-1,-1,-1,20,-1,22,-1,-1,24,26,-1,28,-1,30,-1,-1,-1,-1,32,34,-1,-1,-1,-1],"split_conditions":[1.3941643E0,1.5691955E0,1.0982586E0,1.2197494E-1,2.1090937E0,1.9241029E-1,1.2028105E0,1.2343175E-2,2.7709734E-2,1.5533246E0,-3.5427555E-3,1.8282108E-3,-5.085694E-3,-4.1612266E-3,3.233462E0,9.080972E-3,7.519536E-2,1.7358703E-3,1.70572E-2,9.5378526E-2,5.5492115E-1,6.7686853E-3,2.7571505E-1,-3.1953766E-3,1.0874346E0,6.8136035E-3,-4.518725E-3,-5.973475E-3,8.185772E-4,3.8389915E-1,6.463186E-1,5.877445E-4,1.8995294E-2,-3.5505714E-3,6.792825E-3],"split_indices":[209,424,404,276,450,493,17,0,141,86,0,0,0,0,450,0,220,0,0,329,35,0,121,0,212,0,0,0,0,285,7,0,0,0,0],"split_type":[0,0,0,0,0,0,0,0,0,0,0,0,0,0,0,0,0,0,0,0,0,0,0,0,0,0,0,0,0,0,0,0,0,0,0],"sum_hessian":[6.880012E1,3.1688246E1,3.7111874E1,2.6268946E1,5.4192986E0,5.2297974E0,3.1882076E1,2.0132031E0,2.4255743E1,4.1238995E0,1.2953995E0,1.0000675E0,4.2297297E0,1.954869E0,2.9927208E1,1.3530333E0,2.290271E1,1.0177039E0,3.1061954E0,2.6343588E1,3.5836196E0,1.0078721E0,2.1894838E1,1.0091655E0,2.5334423E1,1.0017812E0,2.5818384E0,2.0601067E1,1.293772E0,2.3030247E1,2.3041766E0,1.3512137E0,2.1679033E1,1.2996652E0,1.0045114E0],"tree_param":{"num_deleted":"0","num_feature":"512","num_nodes":"35","size_leaf_vector":"0"}},{"base_weights":[-2.8683254E-1,-3.5579118E-1,1.2676777E0,9.4407773E-1,-4.2729685E-1,9.1010235E-2,1.3742009E0,-4.737532E-1,9.387558E-1,3.413411E-1,-5.361677E-1,-4.4157264E-1,1.3760573E0,-5.712135E-1,5.2101254E-1,3.8346496E-1,-6.079065E-1],"categories":[],"categories_nodes":[],"categories_segments":[],"categories_sizes":[],"default_left":[1,1,0,1,1,0,0,1,0,1,1,0,0,1,0,0,0],"id":41,"left_children":[1,3,-1,5,7,-1,-1,9,-1,11,13,-1,-1,15,-1,-1,-1],"loss_changes":[7.3846197E0,6.232577E0,0E0,1.1891127E0,4.260871E0,0E0,0E0,3.1753874E0,0E0,4.49176E0,2.3362684E0,0E0,0E0,2.1154995E0,0E0,0E0,0E0],"parents":[2147483647,0,0,1,1,3,3,4,4,7,7,9,9,10,10,13,13],"right_children":[2,4,-1,6,8,-1,-1,10,-1,12,14,-1,-1,16,-1,-1,-1],"split_conditions":[2.5487888E0,2.816249E-2,1.2676776E-2,2.4064651E-1,8.042942E-1,9.1010233E-4,1.3742009E-2,1.0075788E-3,9.387558E-3,3.1731406E-1,6.9535387E-1,-4.4157263E-3,1.3760572E-2,1.3199456E0,5.2101254E-3,3.8346495E-3,-6.079065E-3],"split_indices":[428,496,0,130,162,0,0,510,0,34,112,0,0,153,0,0,0],"split_type":[0,0,0,0,0,0,0,0,0,0,0,0,0,0,0,0,0],"sum_hessian":[6.3680904E1,6.171436E1,1.9665474E0,2.581611E0,5.9132748E1,1.2714745E0,1.3101366E0,5.781963E1,1.3131185E0,3.7946687E0,5.402496E1,2.4865065E0,1.3081622E0,5.2736416E1,1.2885432E0,1.6021112E0,5.1134304E1],"tree_param":{"num_deleted":"0","num_feature":"512","num_nodes":"17","size_leaf_vector":"0"}},{"base_weights":[4.69492E-2,6.778036E-1,-1.1621951E-1,-3.4340155E-1,1.2791708E0,-3.528337E-1,3.6339837E-1,-4.851547E-1,8.6581E-2,1.6784583E0,-7.366128E-2,7.894653E-1,-4.5423284E-1,-1.6384976E-1,1.282842E0,4.9592352E-1,1.8772417E0,3.8877004E-1,-5.374394E-1,1.1747625E0,-3.894827E-1,-3.488427E-1,1.7373458E0,-3.4997693E-1,9.51403E-1,-6.0042846E-1,1.747227E-1,5.2043283E-1,-5.6060433E-1,-3.491499E-1,6.82224E-1],"categories":[],"categories_nodes":[],"categories_segments":[],"categories_sizes":[],"default_left":[1,1,1,1,1,1,1,0,0,1,0,0,1,1,1,0,0,1,1,0,1,0,0,0,0,0,1,0,0,0,0],"id":42,"left_children":[1,3,5,7,9,11,13,-1,-1,15,-1,-1,17,19,21,-1,-1,23,25,-1,27,-1,-1,-1,-1,-1,29,-1,-1,-1,-1],"loss_changes":[6.7529182E0,8.711655E0,6.0711317E0,3.9435363E-1,4.8174477E0,4.4791718E0,8.835692E0,0E0,0E0,6.5605164E-1,0E0,0E0,2.545363E0,4.1408467E0,5.499075E0,0E0,0E0,1.8179009E0,1.4837017E0,0E0,2.0336263E0,0E0,0E0,0E0,0E0,0E0,1.1081815E0,0E0,0E0,0E0,0E0],"parents":[2147483647,0,0,1,1,2,2,3,3,4,4,5,5,6,6,9,9,12,12,13,13,14,14,17,17,18,18,20,20,26,26],"right_children":[2,4,6,8,10,12,14,-1,-1,16,-1,-1,18,20,22,-1,-1,24,26,-1,28,-1,-1,-1,-1,-1,30,-1,-1,-1,-1],"split_conditions":[2.4020666E-1,2.837573E0,5.398805E-1,5.615088E-1,9.8831314E-1,3.218228E-2,2.755392E0,-4.8515466E-3,8.6580997E-4,5.0650574E-3,-7.366128E-4,7.894653E-3,1.5648669E-3,6.308292E-3,6.634077E-2,4.959235E-3,1.8772418E-2,2.1650229E0,1.3116755E0,1.1747625E-2,1.23928756E-1,-3.488427E-3,1.7373458E-2,-3.4997691E-3,9.51403E-3,-6.0042846E-3,9.7468185E-1,5.2043283E-3,-5.606043E-3,-3.491499E-3,6.8222396E-3],"split_indices":[420,153,117,504,444,202,283,0,0,160,0,0,246,115,264,0,0,86,361,0,111,0,0,0,0,0,36,0,0,0,0],"split_type":[0,0,0,0,0,0,0,0,0,0,0,0,0,0,0,0,0,0,0,0,0,0,0,0,0,0,0,0,0,0,0],"sum_hessian":[6.383799E1,1.2470327E1,5.1367664E1,4.780811E0,7.6895165E0,3.4574875E1,1.6792788E1,3.4989822E0,1.2818286E0,5.7513185E0,1.9381981E0,2.2656598E0,3.2309216E1,1.1194933E1,5.5978556E0,1.3305938E0,4.420725E0,2.5726106E0,2.9736605E1,1.0080364E0,1.0186896E1,1.2702148E0,4.327641E0,1.2756395E0,1.2969712E0,2.7464344E1,2.2722616E0,1.289398E0,8.897498E0,1.271631E0,1.0006306E0],"tree_param":{"num_deleted":"0","num_feature":"512","num_nodes":"31","size_leaf_vector":"0"}},{"base_weights":[-1.5096438E-2,-2.2997132E-1,5.93958E-1,7.5646836E-1,-3.5526007E-1,-5.0758034E-1,9.7556865E-1,-4.312454E-1,1.5286683E0,7.188168E-1,-4.6910638E-1,1.5085491E0,-1.4353046E-1,1.5630884E0,-4.0793738E-1,2.2204992E-1,-5.543098E-1,-6.146097E-3,1.8151395E0,5.225813E-1,-4.7397587E-1,-4.571843E-1,1.1133779E0,1.8462953E-1,-6.046592E-1,1.994958E0,5.0769526E-1],"categories":[],"categories_nodes":[],"categories_segments":[],"categories_sizes":[],"default_left":[1,1,1,1,1,0,1,0,0,1,1,1,1,0,0,1,1,0,1,0,0,0,0,0,0,0,0],"id":43,"left_children":[1,3,5,7,9,-1,11,-1,-1,13,15,17,19,-1,-1,21,23,-1,25,-1,-1,-1,-1,-1,-1,-1,-1],"loss_changes":[9.2865925E0,6.7452946E0,8.277206E0,6.36878E0,6.10615E0,0E0,8.621657E0,0E0,0E0,5.3144484E0,2.6707354E0,4.4843864E0,1.449354E0,0E0,0E0,3.8157501E0,1.5552034E0,0E0,8.713608E-1,0E0,0E0,0E0,0E0,0E0,0E0,0E0,0E0],"parents":[2147483647,0,0,1,1,2,2,3,3,4,4,6,6,9,9,10,10,11,11,12,12,15,15,16,16,18,18],"right_children":[2,4,6,8,10,-1,12,-1,-1,14,16,18,20,-1,-1,22,24,-1,26,-1,-1,-1,-1,-1,-1,-1,-1],"split_conditions":[2.1966872E0,2.0842362E-2,1.4755905E-1,8.1722796E-1,2.5635725E-1,-5.0758035E-3,1.6038796E-1,-4.312454E-3,1.5286682E-2,7.294837E-1,1.1952379E-1,6.59445E-2,1.6307E-1,1.5630884E-2,-4.0793736E-3,1.4158425E-1,3.786425E-2,-6.146097E-5,9.149705E-2,5.2258126E-3,-4.7397586E-3,-4.571843E-3,1.1133779E-2,1.8462952E-3,-6.046592E-3,1.994958E-2,5.0769523E-3],"split_indices":[314,24,15,181,262,0,327,0,0,9,77,395,39,0,0,6,202,0,340,0,0,0,0,0,0,0,0],"split_type":[0,0,0,0,0,0,0,0,0,0,0,0,0,0,0,0,0,0,0,0,0,0,0,0,0,0,0],"sum_hessian":[6.891643E1,5.140361E1,1.7512821E1,5.2253E0,4.617831E1,4.4210725E0,1.3091749E1,2.232716E0,2.992584E0,3.916296E0,4.2262012E1,8.6324625E0,4.4592867E0,2.0174108E0,1.8988853E0,4.461876E0,3.7800137E1,1.6181287E0,7.0143332E0,1.285842E0,3.173445E0,2.8086367E0,1.6532391E0,2.2411761E0,3.555896E1,5.703993E0,1.3103406E0],"tree_param":{"num_deleted":"0","num_feature":"512","num_nodes":"27","size_leaf_vector":"0"}},{"base_weights":[-2.77056E-1,-4.200803E-1,1.1820184E0,5.456549E-1,-4.8158744E-1,-3.78126E-1,1.8354597E0,1.1044362E0,-3.494962E-1,-5.313115E-1,3.150288E-1,1.2431265E-1,-5.670244E-1,9.575125E-1,-3.79619E-1,-3.4320003E-1,5.314496E-1,-3.5401024E-2,-6.06201E-1,5.3447926E-1,-4.2754692E-1],"categories":[],"categories_nodes":[],"categories_segments":[],"categories_sizes":[],"default_left":[1,1,1,1,1,0,0,0,0,1,1,1,1,0,0,0,0,1,0,0,0],"id":44,"left_children":[1,3,5,7,9,-1,-1,-1,-1,11,13,15,17,-1,-1,-1,-1,19,-1,-1,-1],"loss_changes":[1.36067295E1,3.7051535E0,6.6789417E0,2.3561568E0,2.3465376E0,0E0,0E0,0E0,0E0,1.2916346E0,2.086185E0,8.513197E-1,1.0123949E0,0E0,0E0,0E0,0E0,1.2272345E0,0E0,0E0,0E0],"parents":[2147483647,0,0,1,1,2,2,3,3,4,4,9,9,10,10,11,11,12,12,17,17],"right_children":[2,4,6,8,10,-1,-1,-1,-1,12,14,16,18,-1,-1,-1,-1,20,-1,-1,-1],"split_conditions":[3.3738735E-1,3.5610792E-1,1.9920233E-1,1.8052869E0,1.4266934E0,-3.7812598E-3,1.8354597E-2,1.1044362E-2,-3.494962E-3,4.0164352E-5,7.910149E-1,2.0100193E0,8.751941E-2,9.575125E-3,-3.79619E-3,-3.4320003E-3,5.314496E-3,1.6827337E0,-6.06201E-3,5.3447923E-3,-4.275469E-3],"split_indices":[227,181,282,35,108,0,0,0,0,69,197,86,186,0,0,0,0,106,0,0,0],"split_type":[0,0,0,0,0,0,0,0,0,0,0,0,0,0,0,0,0,0,0,0,0],"sum_hessian":[6.182343E1,5.695278E1,4.870647E0,2.9387953E0,5.4013985E1,1.5621698E0,3.3084772E0,1.6654012E0,1.2733941E0,5.1154037E1,2.8599489E0,2.5143437E0,4.8639694E1,1.289172E0,1.5707768E0,1.2434914E0,1.2708523E0,3.4690194E0,4.5170673E1,1.2661073E0,2.202912E0],"tree_param":{"num_deleted":"0","num_feature":"512","num_nodes":"21","size_leaf_vector":"0"}},{"base_weights":[7.3542815E-1,-4.387251E-1,8.8820153E-1,-5.4153615E-1,8.960615E-2,3.519544E-1,1.266939E0,8.9640385E-1,-1.739739E-1,1.3772689E0,-4.1925478E-1,-3.0218536E-1,1.4266019E0,-4.895936E-1,8.9597595E-1,1.4812276E0,-3.96906E-1,-4.710317E-1,1.8204662E-1,1.7536558E0,-3.5616744E-1,-5.678914E-1,1.8235077E-1,1.3194474E0,7.4590966E-2,-3.9090496E-1,1.5937651E0,4.8631513E-1,1.9317423E0,8.951647E-2,1.7325118E0,-3.923539E-1,6.811366E-1,-3.1894252E-1,1.820645E0],"categories":[],"categories_nodes":[],"categories_segments":[],"categories_sizes":[],"default_left":[1,1,1,0,0,1,1,1,1,1,0,1,1,1,1,1,0,0,0,1,0,0,0,0,0,0,1,0,0,1,1,0,0,0,0],"id":45,"left_children":[1,3,5,-1,-1,7,9,11,13,15,-1,17,19,21,23,25,-1,-1,-1,27,-1,-1,-1,-1,-1,-1,29,-1,-1,31,33,-1,-1,-1,-1],"loss_changes":[1.2897282E1,5.209464E-1,1.2152164E1,0E0,0E0,7.904498E0,7.269081E0,8.983947E0,5.369667E0,6.857727E0,0E0,4.906959E-1,6.167097E0,7.3081064E-1,1.1814384E0,7.4330673E0,0E0,0E0,0E0,9.1152954E-1,0E0,0E0,0E0,0E0,0E0,0E0,6.2496796E0,0E0,0E0,1.3066533E0,5.650635E0,0E0,0E0,0E0,0E0],"parents":[2147483647,0,0,1,1,2,2,5,5,6,6,7,7,8,8,9,9,11,11,12,12,13,13,14,14,15,15,19,19,26,26,29,29,30,30],"right_children":[2,4,6,-1,-1,8,10,12,14,16,-1,18,20,22,24,26,-1,-1,-1,28,-1,-1,-1,-1,-1,-1,30,-1,-1,32,34,-1,-1,-1,-1],"split_conditions":[4.7195074E-1,1.5019222E0,1.3839066E0,-5.4153614E-3,8.960615E-4,4.6228266E-1,1.097089E0,7.990076E-3,9.261021E-1,1.5194688E0,-4.192548E-3,5.4080725E-1,1.7667139E0,1.9167647E0,2.8454345E-1,5.641325E-2,-3.96906E-3,-4.7103167E-3,1.8204661E-3,2.1757296E-1,-3.5616744E-3,-5.678914E-3,1.8235076E-3,1.3194473E-2,7.4590964E-4,-3.9090496E-3,4.603669E-1,4.8631513E-3,1.9317422E-2,7.555656E-1,8.3291605E-2,-3.9235386E-3,6.811366E-3,-3.189425E-3,1.820645E-2],"split_indices":[26,302,209,0,0,261,490,207,451,68,0,11,251,286,31,96,0,0,0,255,0,0,0,0,0,0,428,0,0,52,403,0,0,0,0],"split_type":[0,0,0,0,0,0,0,0,0,0,0,0,0,0,0,0,0,0,0,0,0,0,0,0,0,0,0,0,0,0,0,0,0,0,0],"sum_hessian":[6.872711E1,7.697277E0,6.1029835E1,6.422493E0,1.2747841E0,2.6060522E1,3.4969315E1,1.2458677E1,1.3601845E1,3.29937E1,1.9756141E0,3.9528165E0,8.50586E0,1.092233E1,2.6795144E0,3.1323408E1,1.6702923E0,2.951071E0,1.0017455E0,7.201125E0,1.3047357E0,9.921131E0,1.0011994E0,1.3679091E0,1.3116052E0,1.6358846E0,2.9687523E1,1.3468854E0,5.8542395E0,2.645964E0,2.704156E1,1.6438634E0,1.0021005E0,1.0060117E0,2.6035547E1],"tree_param":{"num_deleted":"0","num_feature":"512","num_nodes":"35","size_leaf_vector":"0"}},{"base_weights":[-2.5835225E-1,-3.6216685E-1,6.480465E-1,-4.554564E-1,6.505129E-1,1.6575725E0,-2.5550804E-1,-5.256689E-1,4.766639E-1,-4.2837018E-1,1.5944834E0,-4.2600408E-1,9.9956945E-2,3.982817E-1,-5.8454865E-1,-4.049984E-1,1.3652941E0,-3.4326926E-1,9.4834894E-1,1.0104728E-1,-6.0558397E-1],"categories":[],"categories_nodes":[],"categories_segments":[],"categories_sizes":[],"default_left":[1,1,1,1,1,0,1,1,1,0,0,0,0,1,1,0,0,0,0,0,0],"id":46,"left_children":[1,3,5,7,9,-1,11,13,15,-1,-1,-1,-1,17,19,-1,-1,-1,-1,-1,-1],"loss_changes":[6.1062326E0,5.6460233E0,6.5996633E0,3.6825247E0,5.9670744E0,0E0,3.1163433E-1,2.911643E0,3.8417678E0,0E0,0E0,0E0,0E0,1.771445E0,7.346382E-1,0E0,0E0,0E0,0E0,0E0,0E0],"parents":[2147483647,0,0,1,1,2,2,3,3,4,4,6,6,7,7,8,8,13,13,14,14],"right_children":[2,4,6,8,10,-1,12,14,16,-1,-1,-1,-1,18,20,-1,-1,-1,-1,-1,-1],"split_conditions":[1.8295965E0,2.58771E0,1.4013699E-1,1.2883426E0,3.054293E-1,1.6575724E-2,2.9083017E-1,6.641194E-2,4.0841562E-1,-4.2837015E-3,1.5944833E-2,-4.260041E-3,9.995694E-4,8.60009E-2,6.519117E-2,-4.049984E-3,1.365294E-2,-3.4326925E-3,9.483489E-3,1.0104728E-3,-6.0558394E-3],"split_indices":[35,118,388,111,502,0,164,109,55,0,0,0,0,69,244,0,0,0,0,0,0],"split_type":[0,0,0,0,0,0,0,0,0,0,0,0,0,0,0,0,0,0,0,0,0],"sum_hessian":[6.139843E1,5.562755E1,5.770882E0,5.1439144E1,4.188404E0,2.3314693E0,3.4394128E0,4.8241386E1,3.1977592E0,2.2094185E0,1.9789853E0,2.1903746E0,1.2490382E0,2.544731E0,4.5696655E1,1.8783661E0,1.3193932E0,1.2438437E0,1.3008872E0,1.2470859E0,4.4449566E1],"tree_param":{"num_deleted":"0","num_feature":"512","num_nodes":"21","size_leaf_vector":"0"}},{"base_weights":[1.6117647E-1,-1.8997109E-1,5.870724E-1,-3.2634687E-1,8.1302124E-1,8.789702E-1,-4.0301344E-1,-4.936414E-1,6.329314E-1,-3.8292506E-1,1.5733764E0,-1.9645622E-1,1.1989981E0,-5.215472E-1,9.404802E-2,5.229171E-1,-5.617546E-1,1.3531022E0,-4.0985426E-1,-5.012181E-1,6.802226E-1,-4.080088E-2,1.5047833E0,9.6269056E-2,-5.978597E-1,-4.286879E-1,5.217503E-1,-7.055489E-2,1.7554511E0,8.336267E-2,1.9421276E0,4.9804744E-1,2.087186E0],"categories":[],"categories_nodes":[],"categories_segments":[],"categories_sizes":[],"default_left":[1,1,1,1,1,1,1,1,1,0,0,1,1,0,0,0,1,0,0,0,0,1,1,0,0,0,0,0,1,0,1,0,0],"id":47,"left_children":[1,3,5,7,9,11,13,15,17,-1,-1,19,21,-1,-1,-1,23,-1,-1,-1,-1,25,27,-1,-1,-1,-1,-1,29,-1,31,-1,-1],"loss_changes":[9.726401E0,5.1886306E0,8.821396E0,5.5118484E0,4.780575E0,8.131155E0,4.8248482E-1,2.2428408E0,4.496744E0,0E0,0E0,1.9761959E0,6.8174667E0,0E0,0E0,0E0,6.957855E-1,0E0,0E0,0E0,0E0,1.2054524E0,5.77919E0,0E0,0E0,0E0,0E0,0E0,3.7067833E0,0E0,1.286602E0,0E0,0E0],"parents":[2147483647,0,0,1,1,2,2,3,3,4,4,5,5,6,6,7,7,8,8,11,11,12,12,16,16,21,21,22,22,28,28,30,30],"right_children":[2,4,6,8,10,12,14,16,18,-1,-1,20,22,-1,-1,-1,24,-1,-1,-1,-1,26,28,-1,-1,-1,-1,-1,30,-1,32,-1,-1],"split_conditions":[2.5929058E-1,3.0046809E0,7.855594E-2,1.2322364E0,2.2356789E-1,5.7631695E-1,6.3396466E-1,2.5451556E-2,3.807807E0,-3.8292506E-3,1.5733764E-2,2.9019806E0,2.2758864E-2,-5.215472E-3,9.404802E-4,5.229171E-3,2.7052897E-1,1.3531022E-2,-4.0985425E-3,-5.0121807E-3,6.8022255E-3,2.0563503E-1,1.674716E-1,9.6269057E-4,-5.978597E-3,-4.2868787E-3,5.217503E-3,-7.0554885E-4,5.387035E-2,8.3362666E-4,1.8323805E-2,4.9804742E-3,2.087186E-2],"split_indices":[291,450,112,371,421,32,312,202,137,0,0,104,443,0,0,0,505,0,0,0,0,249,268,0,0,0,0,0,447,0,125,0,0],"split_type":[0,0,0,0,0,0,0,0,0,0,0,0,0,0,0,0,0,0,0,0,0,0,0,0,0,0,0,0,0,0,0,0,0],"sum_hessian":[6.3291046E1,3.499331E1,2.8297737E1,3.1398687E1,3.5946193E0,2.1941235E1,6.3565025E0,2.7149347E1,4.2493405E0,1.5900501E0,2.004569E0,5.120468E0,1.6820766E1,5.0927734E0,1.2637293E0,1.2855723E0,2.5863775E1,2.3374572E0,1.9118835E0,4.1174026E0,1.0030657E0,3.4993408E0,1.3321425E1,1.2586302E0,2.4605145E1,2.212055E0,1.2872858E0,1.9273568E0,1.1394069E1,1.2895899E0,1.0104479E1,1.3270376E0,8.777442E0],"tree_param":{"num_deleted":"0","num_feature":"512","num_nodes":"33","size_leaf_vector":"0"}},{"base_weights":[-1.0142026E-1,1.2358806E0,-2.2719564E-1,-3.5354495E-1,1.7841341E0,6.995898E-1,-3.4855655E-1,-4.5957738E-1,1.5501221E0,-4.7645563E-1,3.581384E-1,7.4847555E-1,-5.389365E-1,1.2225147E0,-5.0019145E-1,3.7351188E-1,-5.8269125E-1,1.6389784E0,8.103957E-2,9.185573E-2,-6.05734E-1],"categories":[],"categories_nodes":[],"categories_segments":[],"categories_sizes":[],"default_left":[1,1,1,0,0,1,1,0,0,1,1,0,1,1,0,0,1,0,0,0,0],"id":48,"left_children":[1,3,5,-1,-1,7,9,-1,-1,11,13,-1,15,17,-1,-1,19,-1,-1,-1,-1],"loss_changes":[1.1098066E1,5.583832E0,6.9505625E0,0E0,0E0,7.847103E0,4.9964643E0,0E0,0E0,3.8963175E0,7.105501E0,0E0,1.9744949E0,2.0784125E0,0E0,0E0,7.144022E-1,0E0,0E0,0E0,0E0],"parents":[2147483647,0,0,1,1,2,2,5,5,6,6,9,9,10,10,12,12,13,13,16,16],"right_children":[2,4,6,-1,-1,8,10,-1,-1,12,14,-1,16,18,-1,-1,20,-1,-1,-1,-1],"split_conditions":[2.6104685E-2,1.7629617E-1,2.5586492E-1,-3.5354495E-3,1.7841341E-2,4.9916035E-1,1.0925025E0,-4.5957738E-3,1.5501221E-2,1.0334518E-2,1.1103705E-1,7.4847555E-3,7.591297E-3,2.2328324E0,-5.001914E-3,3.7351188E-3,8.273223E-3,1.6389783E-2,8.103957E-4,9.185572E-4,-6.0573397E-3],"split_indices":[410,323,262,0,0,259,432,0,0,307,53,0,172,65,0,0,422,0,0,0,0],"split_type":[0,0,0,0,0,0,0,0,0,0,0,0,0,0,0,0,0,0,0,0,0],"sum_hessian":[6.3312187E1,4.6839724E0,5.8628216E1,1.292389E0,3.3915834E0,6.2366724E0,5.2391544E1,2.8339794E0,3.4026933E0,4.4638565E1,7.752979E0,1.6335568E0,4.300501E1,3.6514807E0,4.101498E0,1.6229984E0,4.1382008E1,2.356043E0,1.2954376E0,1.2682858E0,4.0113724E1],"tree_param":{"num_deleted":"0","num_feature":"512","num_nodes":"21","size_leaf_vector":"0"}},{"base_weights":[-3.466902E-1,1.34985E0,-4.041434E-1,-4.7488174E-1,6.0315824E-1,-5.36496E-1,3.29411E-1,-4.0689725E-1,1.4684969E0,5.154905E-1,-5.711825E-1,-4.2705125E-1,1.1198086E0,3.8342968E-1,-6.0753006E-1],"categories":[],"categories_nodes":[],"categories_segments":[],"categories_sizes":[],"default_left":[1,0,1,1,1,1,1,0,0,0,1,0,0,0,0],"id":49,"left_children":[1,-1,3,5,7,9,11,-1,-1,-1,13,-1,-1,-1,-1],"loss_changes":[6.8099937E0,0E0,4.7707825E0,3.118559E0,4.5919604E0,2.3203573E0,3.3742676E0,0E0,0E0,0E0,2.1143436E0,0E0,0E0,0E0,0E0],"parents":[2147483647,0,0,2,2,3,3,4,4,5,5,6,6,10,10],"right_children":[2,-1,4,6,8,10,12,-1,-1,-1,14,-1,-1,-1,-1],"split_conditions":[1.4956957E-1,1.34985E-2,1.7546172E0,7.060423E-1,9.911956E-2,2.75818E-1,8.389345E-2,-4.0689725E-3,1.4684969E-2,5.1549044E-3,6.542972E-2,-4.270512E-3,1.1198086E-2,3.8342967E-3,-6.0753003E-3],"split_indices":[424,0,157,307,16,428,339,0,0,0,20,0,0,0,0],"split_type":[0,0,0,0,0,0,0,0,0,0,0,0,0,0,0],"sum_hessian":[6.3269585E1,1.3356049E0,6.1933983E1,5.8363903E1,3.5700796E0,5.4520245E1,3.8436587E0,1.8917459E0,1.6783335E0,1.2978258E0,5.3222416E1,2.1988838E0,1.644775E0,1.6019038E0,5.1620514E1],"tree_param":{"num_deleted":"0","num_feature":"512","num_nodes":"15","size_leaf_vector":"0"}},{"base_weights":[6.7607504E-1,1.1647204E0,3.2450998E-1,1.4727157E0,3.5388663E-1,-3.8820964E-1,5.809088E-1,-8.866446E-2,1.6593157E0,-1.1263107E-1,1.4100338E0,-5.6340927E-1,6.790148E-1,2.8815866E-1,1.5025254E0,-2.7867654E-2,1.8447E0,-5.244629E-1,1.1347005E0,-7.683766E-2,1.1412959E0,1.8406337E0,6.454947E-2,1.670721E-1,1.952591E0,7.218283E-1,-4.9280414E-1,1.5319678E0,-3.520625E-1,1.4585011E0,-4.3309122E-1,-5.706388E-1,1.826052E-1,1.7756124E0,1.8115595E-1],"categories":[],"categories_nodes":[],"categories_segments":[],"categories_sizes":[],"default_left":[1,1,1,1,1,1,1,0,1,1,0,0,0,1,1,0,1,0,0,1,1,0,0,0,0,1,1,1,0,0,0,0,0,0,0],"id":50,"left_children":[1,3,5,7,9,11,13,-1,15,17,-1,-1,-1,19,21,-1,23,-1,-1,25,27,-1,-1,-1,-1,29,31,33,-1,-1,-1,-1,-1,-1,-1],"loss_changes":[1.0826006E1,6.1973763E0,7.410105E0,5.735485E0,4.4563575E0,2.4395332E0,7.4762278E0,0E0,5.4261246E0,4.178578E0,0E0,0E0,0E0,7.4007325E0,3.2017097E0,0E0,2.4788399E0,0E0,0E0,6.131325E0,4.681594E0,0E0,0E0,0E0,0E0,6.0422535E0,7.363875E-1,1.5920353E0,0E0,0E0,0E0,0E0,0E0,0E0,0E0],"parents":[2147483647,0,0,1,1,2,2,3,3,4,4,5,5,6,6,8,8,9,9,13,13,14,14,16,16,19,19,20,20,25,25,26,26,27,27],"right_children":[2,4,6,8,10,12,14,-1,16,18,-1,-1,-1,20,22,-1,24,-1,-1,26,28,-1,-1,-1,-1,30,32,34,-1,-1,-1,-1,-1,-1,-1],"split_conditions":[2.3056228E0,1.975229E-1,4.300565E-1,4.595561E-1,1.8877108E0,6.205404E-1,7.516417E-1,-8.866445E-4,1.0237114E-1,1.535359E0,1.4100338E-2,-5.6340927E-3,6.790148E-3,1.0819652E-1,1.2988558E0,-2.7867654E-4,2.2055991E-2,-5.2446285E-3,1.1347005E-2,6.365482E-1,2.0777507E0,1.8406337E-2,6.4549467E-4,1.670721E-3,1.952591E-2,5.388325E-1,7.4174464E-1,7.013849E-1,-3.520625E-3,1.4585011E-2,-4.330912E-3,-5.7063876E-3,1.826052E-3,1.7756123E-2,1.8115594E-3],"split_indices":[192,201,328,294,294,133,288,0,108,2,0,0,0,160,46,0,125,0,0,123,219,0,0,0,0,61,306,507,0,0,0,0,0,0,0],"split_type":[0,0,0,0,0,0,0,0,0,0,0,0,0,0,0,0,0,0,0,0,0,0,0,0,0,0,0,0,0,0,0,0,0,0,0],"sum_hessian":[6.421875E1,2.5902933E1,3.8315823E1,1.8180696E1,7.722235E0,1.0001172E1,2.831465E1,1.9968493E0,1.6183847E1,5.9759264E0,1.746309E0,8.996373E0,1.0047991E0,2.2484991E1,5.829657E0,1.6863201E0,1.4497528E1,4.928285E0,1.0476412E0,1.6384972E1,6.10002E0,4.4931703E0,1.3364868E0,1.0300177E0,1.346751E1,5.35943E0,1.1025542E1,4.814629E0,1.2853909E0,3.111732E0,